~o
<STREAMINFO> 1 39
<VECSIZE> 39<NULLD><MFCC_D_A_Z_0><DIAGC>
~h "Agra"
<BEGINHMM>
<NUMSTATES> 7
<STATE> 2
<NUMMIXES> 16
<MIXTURE> 1 4.771851e-02
<MEAN> 39
 -2.911536e+00 8.461502e+00 5.962205e+00 4.522393e+00 3.540608e+00 2.696725e+00 1.247196e+00 1.682481e+00 1.508886e+01 4.708827e+00 -1.046868e+00 4.465749e+00 -1.278149e+01 4.975297e-01 -1.042471e+00 -2.855769e-01 5.996777e-01 4.310429e-02 -5.786901e-01 -6.789498e-01 1.253684e-01 -3.628630e-01 -4.172994e-01 -9.179092e-03 -4.458796e-01 6.516752e-01 -2.639619e-03 -9.734769e-01 -5.862223e-01 1.229657e-01 3.956196e-01 -3.387106e-01 2.891895e-01 -2.575015e-01 -1.313225e+00 -5.031618e-01 2.594336e-01 1.573843e-02 9.319619e-01
<VARIANCE> 39
 2.182085e+01 1.399964e+01 9.218768e+00 1.129294e+01 1.078001e+01 2.278553e+01 3.550173e+01 1.792741e+01 1.919005e+01 1.604406e+01 1.356676e+01 1.722094e+01 1.375976e+01 1.399447e+00 4.104146e+00 1.831528e+00 7.505116e-01 2.303605e+00 2.346272e+00 4.111391e+00 1.177143e+00 6.562130e+00 3.234620e+00 2.934364e+00 2.562065e+00 3.366834e+00 1.161744e-01 5.954897e-01 3.591081e-01 1.785625e-01 2.726299e-01 5.901902e-01 5.301058e-01 3.140861e-01 5.129175e-01 3.462569e-01 3.572736e-01 5.554187e-01 4.633965e-01
<GCONST> 1.062740e+02
<MIXTURE> 2 1.128106e-01
<MEAN> 39
 -1.147677e+00 5.693070e+00 3.999609e+00 6.214547e+00 4.364547e+00 1.245736e+00 -2.047616e+00 1.364075e+00 1.038737e+01 4.710846e+00 3.596193e+00 6.278505e+00 -1.208467e+01 -8.761044e-02 -2.949525e-01 -1.601643e-01 -5.791445e-02 9.640644e-02 -4.424169e-02 3.807620e-01 4.483254e-01 -3.422485e-01 -2.999003e-01 -1.064342e-01 2.806359e-01 1.789351e-01 -1.037697e-01 -1.406586e-02 1.001537e-01 3.765254e-02 7.236921e-02 6.583861e-02 2.217092e-01 5.599561e-03 -9.397235e-02 -9.795495e-02 -4.797232e-02 -1.008890e-01 1.629834e-02
<VARIANCE> 39
 7.873930e+00 5.678352e+00 5.694963e+00 9.749420e+00 1.158147e+01 1.799395e+01 1.306341e+01 2.213993e+01 1.687585e+01 1.755097e+01 2.929914e+01 1.602049e+01 2.462684e+00 2.495536e-01 4.083342e-01 1.062765e+00 1.340820e+00 1.070270e+00 2.363099e+00 1.474920e+00 1.314617e+00 2.282249e+00 1.994013e+00 2.854589e+00 2.147625e+00 1.084033e-01 4.145321e-02 4.135534e-02 1.414060e-01 1.748742e-01 1.443197e-01 2.543396e-01 2.130976e-01 2.018522e-01 3.561575e-01 4.240379e-01 3.964565e-01 2.137902e-01 1.682675e-02
<GCONST> 7.904904e+01
<MIXTURE> 3 8.211762e-02
<MEAN> 39
 -3.174498e+00 -7.062604e-01 3.133055e-01 1.117626e+01 6.322464e+00 -1.063333e+00 -3.720646e-01 1.236857e+00 5.472660e+00 -5.794843e-01 5.714872e+00 5.070012e+00 -6.395834e+00 1.362047e-01 -1.030164e+00 -1.200924e+00 6.264292e-01 3.088918e-01 -6.296206e-01 -6.519464e-01 -4.093369e-01 -1.132117e+00 -2.205586e-01 -7.739171e-01 -6.546907e-01 1.597543e+00 2.287696e-01 1.352796e-01 -1.163803e-01 -4.945203e-01 -2.715571e-01 6.832443e-02 -6.790105e-02 -6.598271e-02 -1.272512e-01 1.984248e-01 -5.477024e-01 -2.073983e-01 2.705457e-01
<VARIANCE> 39
 6.380928e+00 4.114017e+00 5.681436e+00 1.162675e+01 1.522145e+01 1.469095e+01 2.053494e+01 2.020962e+01 1.999235e+01 2.367987e+01 2.951406e+01 2.466821e+01 1.033624e+01 9.018084e-01 5.478517e-01 7.262467e-01 1.875861e+00 2.581286e+00 1.500837e+00 1.815137e+00 1.718144e+00 2.961886e+00 2.184021e+00 3.550915e+00 2.487984e+00 7.865061e-01 1.186595e-01 7.114626e-02 8.133650e-02 3.210898e-01 3.634054e-01 2.532498e-01 4.028523e-01 3.157366e-01 4.607368e-01 3.861530e-01 5.840670e-01 3.228889e-01 6.831294e-02
<GCONST> 9.261532e+01
<MIXTURE> 4 1.348222e-01
<MEAN> 39
 -4.112079e+00 6.693039e+00 5.334563e+00 7.310262e+00 3.494855e+00 3.908802e+00 3.591645e+00 2.581614e+00 9.725175e+00 5.831355e-01 6.508209e-01 2.140361e+00 -1.149643e+01 -3.699286e-02 -1.972348e-01 -8.914857e-02 1.173939e-01 3.072004e-01 1.357114e-02 2.170033e-01 3.129714e-01 -3.382976e-02 -2.007350e-01 -2.671744e-02 -2.795525e-01 8.378447e-02 7.798372e-02 -6.417439e-02 -4.784486e-02 -5.160398e-02 4.929200e-02 -2.249547e-01 -2.032594e-01 -1.407085e-01 -6.544734e-02 1.251298e-01 1.306325e-01 2.663787e-01 6.068303e-02
<VARIANCE> 39
 3.800043e+00 6.828026e+00 9.416273e+00 1.428102e+01 2.235589e+01 1.268222e+01 1.991323e+01 3.103255e+01 2.404845e+01 2.137533e+01 2.276371e+01 1.750490e+01 6.563710e+00 2.054802e-01 4.699029e-01 8.324087e-01 1.204994e+00 1.716665e+00 1.495402e+00 2.001729e+00 1.814825e+00 2.505787e+00 1.926828e+00 2.032306e+00 1.278883e+00 1.229765e-01 4.963768e-02 7.399344e-02 1.211156e-01 1.748706e-01 3.604741e-01 2.640638e-01 2.643740e-01 3.387451e-01 3.844479e-01 2.757150e-01 3.718646e-01 2.298306e-01 2.075950e-02
<GCONST> 8.354688e+01
<MIXTURE> 5 3.549325e-02
<MEAN> 39
 -1.709752e+00 -7.239033e+00 -6.470785e+00 -4.533721e-02 1.356803e+01 -9.792053e+00 4.440908e+00 -4.252169e+00 -6.393812e-01 -1.926551e+00 -7.850986e-01 7.447564e+00 4.798409e+00 -1.006027e+00 -1.032442e+00 -1.089617e+00 -6.665094e-01 -5.734523e-03 -7.230377e-01 -4.328831e-01 -1.132910e+00 -5.784038e-01 -6.309463e-01 -3.670534e-01 4.576617e-01 2.872845e+00 1.183646e-01 8.101711e-01 5.365346e-01 6.392751e-01 -5.082083e-01 8.289469e-01 -4.923122e-01 5.145003e-01 4.431139e-01 1.254155e-01 5.202045e-02 -3.062119e-01 -8.793691e-01
<VARIANCE> 39
 1.169775e+01 6.809634e+00 1.201893e+01 9.927723e+00 1.065411e+01 2.902019e+01 1.213887e+01 1.443956e+01 1.030234e+01 2.272144e+01 1.921722e+01 1.034619e+01 1.403210e+01 1.458688e+00 1.825686e+00 1.133234e+00 3.017318e+00 9.469107e-01 1.705356e+00 1.405216e+00 2.745754e+00 3.484136e+00 3.295499e+00 2.456674e+00 1.883312e+00 3.133244e+00 3.076109e-01 5.070202e-01 2.187037e-01 3.637919e-01 1.059055e-01 3.925359e-01 2.372727e-01 4.071899e-01 5.479326e-01 5.558292e-01 3.358116e-01 2.762646e-01 4.073443e-01
<GCONST> 9.990836e+01
<MIXTURE> 6 2.200841e-02
<MEAN> 39
 -4.170067e+00 -4.912676e+00 -4.347024e+00 9.841350e+00 3.954181e+00 -9.923231e+00 -6.357309e+00 -1.206665e-01 1.636445e+00 9.090885e-01 -2.375983e+00 -7.350585e+00 8.285876e+00 -9.539145e-01 -4.816018e-01 -4.921000e-01 5.604314e-01 8.414404e-02 -4.893585e-02 -1.037660e+00 -7.115288e-01 -6.425875e-01 1.330891e-01 7.533113e-01 -1.107455e+00 1.833180e+00 2.002226e-01 4.567266e-01 7.361039e-01 -2.904005e-01 2.109569e-01 7.140757e-01 7.024367e-01 1.484787e-01 -1.096282e-02 9.418536e-02 3.669501e-01 6.214262e-01 -9.833203e-01
<VARIANCE> 39
 3.264199e+00 4.882815e+00 5.368147e+00 7.118626e+00 1.772315e+01 3.212418e+00 8.187295e+00 5.144367e+00 1.277930e+01 1.189570e+01 8.351991e+00 9.935901e+00 6.061096e+00 9.312983e-01 5.563759e-01 1.027487e+00 5.617983e-01 8.484027e-01 1.322965e+00 9.006175e-01 5.402296e-01 9.453986e-01 1.018499e+00 1.144967e+00 8.056678e-01 1.930418e+00 1.846621e-01 1.267153e-01 1.453698e-01 2.199820e-01 3.606835e-01 2.433759e-01 3.101320e-02 1.326478e-01 9.763515e-02 2.743054e-01 7.718257e-02 1.257985e-01 8.983643e-02
<GCONST> 7.005486e+01
<MIXTURE> 7 9.192862e-02
<MEAN> 39
 6.356668e-01 7.221983e+00 4.444774e+00 3.648103e+00 5.469409e+00 5.810486e+00 6.574241e-01 6.540926e+00 1.247079e+01 3.856156e+00 -1.533970e+00 4.166058e+00 -1.624519e+01 1.472094e-01 -4.232688e-02 -2.479446e-02 2.365473e-01 1.942379e-01 -8.376592e-01 -5.975621e-01 -8.561020e-01 -2.785410e-01 -1.689896e-01 3.280683e-01 7.079067e-01 1.502148e-01 -2.238095e-02 -1.515572e-01 -1.586939e-02 5.602167e-02 -1.218410e-02 -5.075913e-03 2.328994e-01 1.649267e-01 -3.952052e-01 -3.173207e-01 2.099272e-01 -9.082612e-02 8.722866e-02
<VARIANCE> 39
 4.332168e+00 4.147345e+00 7.673036e+00 1.172742e+01 1.061489e+01 2.155793e+01 3.003399e+01 1.798306e+01 1.816697e+01 1.844948e+01 2.151591e+01 2.049122e+01 1.870201e+00 2.003566e-01 4.028496e-01 6.859486e-01 7.957557e-01 1.262848e+00 1.749740e+00 1.448580e+00 9.359488e-01 1.685498e+00 2.559101e+00 3.563214e+00 2.982244e+00 1.020157e-01 2.452278e-02 8.328485e-02 1.227977e-01 1.816367e-01 1.550947e-01 2.502569e-01 3.965606e-01 1.560134e-01 3.111711e-01 2.583767e-01 5.656236e-01 4.814082e-01 2.077999e-02
<GCONST> 7.911330e+01
<MIXTURE> 8 4.812890e-02
<MEAN> 39
 -1.818057e+00 4.589725e+00 3.853197e+00 6.520266e+00 3.522731e+00 1.802323e-02 1.161982e+00 4.250089e+00 5.648380e+00 6.445146e+00 9.359971e+00 5.858281e+00 -1.173558e+01 -3.513920e-01 -1.280683e+00 -9.663682e-02 5.183842e-01 3.098156e-01 -4.142950e-01 -1.166196e-01 2.158799e-01 -1.296312e+00 -1.605565e-01 9.870775e-01 -9.601814e-01 1.113805e+00 1.465680e-01 -3.966450e-01 -2.990971e-01 -9.972865e-02 2.788849e-01 2.060174e-01 -1.839381e-01 -9.650072e-02 3.774170e-02 -5.757341e-01 -9.172491e-01 -4.334559e-01 5.034859e-01
<VARIANCE> 39
 4.185899e+00 1.962074e+01 1.083248e+01 5.645751e+00 8.189136e+00 1.820619e+01 1.856018e+01 2.509426e+01 2.571285e+01 2.321025e+01 1.639790e+01 2.405045e+01 5.744637e+00 6.372698e-01 2.390007e+00 1.392187e+00 1.554111e+00 2.199934e+00 1.546429e+00 3.277278e+00 2.159296e+00 3.267809e+00 1.290288e+00 3.554691e+00 3.712598e+00 8.510321e-01 1.425037e-01 2.855160e-01 1.614097e-01 1.037147e-01 2.935003e-01 3.831985e-01 2.277698e-01 5.347188e-01 3.994285e-01 3.987360e-01 2.781990e-01 7.692180e-01 1.061540e-01
<GCONST> 9.649160e+01
<MIXTURE> 9 8.823111e-02
<MEAN> 39
 -3.199781e+00 3.194467e+00 6.014634e+00 9.758420e+00 5.565855e+00 9.179431e-01 1.334005e+00 3.470550e+00 6.220613e+00 2.450075e+00 2.316394e+00 3.988024e+00 -1.062455e+01 7.479143e-01 -2.206981e+00 -1.616313e+00 -3.710390e-02 1.194114e-01 -1.267093e+00 -3.080820e-01 -6.853033e-01 -2.028456e+00 -6.463625e-01 -7.273794e-01 -1.076563e+00 2.657470e+00 3.322927e-01 -5.920735e-01 -9.401205e-01 -5.851397e-01 -2.582418e-02 -3.255607e-01 -2.803217e-01 -3.272669e-01 -3.674434e-01 -2.933210e-01 -1.544213e-01 -2.949218e-01 1.050622e+00
<VARIANCE> 39
 7.697217e+00 1.339255e+01 1.267230e+01 1.461628e+01 1.111612e+01 2.114173e+01 2.581624e+01 2.311439e+01 1.824772e+01 2.966539e+01 2.278571e+01 1.755008e+01 9.083431e+00 1.288859e+00 1.625851e+00 2.159015e+00 2.284468e+00 1.279955e+00 2.844786e+00 2.196704e+00 2.830063e+00 3.681014e+00 3.229222e+00 1.927544e+00 1.929064e+00 1.747862e+00 1.318431e-01 2.361329e-01 2.032192e-01 3.336496e-01 2.558155e-01 3.814965e-01 3.631805e-01 5.641150e-01 5.544809e-01 4.678687e-01 2.722875e-01 3.640130e-01 1.005799e-01
<GCONST> 1.016488e+02
<MIXTURE> 10 2.072849e-02
<MEAN> 39
 -1.785730e+00 -2.832985e+00 2.433049e+00 7.697518e+00 1.017940e+01 2.904222e+00 -2.851044e+00 3.915940e+00 5.191628e+00 -8.888468e-01 -9.074063e-01 -1.746744e+00 -2.897273e+00 6.086682e-01 -3.750329e+00 -2.583473e+00 -7.403013e-01 6.895396e-01 8.440666e-02 -9.775954e-01 -2.605769e-01 -3.082243e+00 -1.876625e+00 1.350213e-01 -1.252322e+00 4.082243e+00 1.539338e-01 2.579169e-01 -6.797244e-01 -3.937195e-01 -6.459332e-01 -1.466997e-01 2.705606e-01 -2.957908e-01 -6.619132e-01 1.583516e-01 6.305513e-01 5.178068e-01 7.240705e-02
<VARIANCE> 39
 1.079509e+01 1.767080e+01 1.883720e+01 1.606587e+01 2.123247e+01 1.151547e+01 9.546565e+00 1.591772e+01 1.999908e+01 1.463768e+01 1.910323e+01 1.054516e+01 3.031530e+00 1.219701e+00 4.812211e+00 1.447755e+00 1.644551e+00 1.454103e+00 1.643739e+00 2.124592e+00 1.623893e+00 3.494470e+00 2.112212e+00 1.318065e+00 2.536936e+00 2.297868e+00 3.073651e-01 2.418699e-01 2.773056e-01 3.362172e-01 6.814508e-01 3.858352e-01 2.063065e-01 4.546058e-01 4.877860e-01 3.253730e-01 3.889787e-01 1.783178e-01 2.006527e-01
<GCONST> 9.925292e+01
<MIXTURE> 11 2.202756e-02
<MEAN> 39
 4.113324e+00 1.996215e+00 -1.243409e+00 1.028585e+01 5.904949e+00 -2.843170e+00 -2.349714e+00 1.794066e-01 2.041571e+00 -3.882930e+00 -3.024898e-01 2.840114e+00 -9.788759e+00 7.591093e-01 -2.754054e+00 -2.653836e+00 -4.308903e-01 1.063717e+00 -3.250111e+00 4.557969e-01 -2.544738e+00 -1.928481e+00 -1.331713e+00 -4.775076e-01 4.558051e-02 4.279289e+00 -4.993096e-01 -2.478955e-01 -5.008169e-02 -8.373835e-01 2.247462e-01 -1.377577e-01 2.115745e-01 1.950823e-01 2.080038e-01 2.784032e-01 1.059546e-01 4.422351e-01 6.244634e-01
<VARIANCE> 39
 5.935950e+00 4.786265e+00 1.136380e+01 2.242743e+01 1.176993e+01 2.779738e+01 9.723688e+00 1.294055e+01 2.121246e+01 2.680922e+01 8.686320e+00 9.295229e+00 1.295579e+01 9.262674e-01 7.393614e-01 9.263448e-01 3.591393e+00 1.089133e+00 1.714119e+00 8.871485e-01 3.378415e+00 3.864169e+00 2.140792e+00 2.414189e+00 2.251603e+00 2.835356e+00 1.169637e-01 1.141436e-01 1.947468e-01 4.389335e-01 2.369379e-01 3.082572e-01 1.653439e-01 4.806495e-01 5.319718e-01 7.843394e-01 1.790365e-01 1.174426e-01 2.390765e-01
<GCONST> 9.378798e+01
<MIXTURE> 12 8.322816e-02
<MEAN> 39
 1.925316e-01 -1.031151e+01 -5.756334e+00 3.996289e+00 6.325163e+00 -3.162671e+00 -3.645919e+00 -3.031025e-01 -5.014251e+00 -1.496458e+00 4.446182e+00 -1.179158e+00 6.380216e+00 -2.405768e-02 -1.663370e+00 -1.684695e+00 -9.221103e-01 -1.964254e-01 -5.924289e-01 -1.074165e+00 -1.751439e-01 -1.911816e+00 -6.790286e-01 5.620829e-01 -3.068745e-01 2.707451e+00 -2.101078e-01 1.034512e+00 6.109916e-01 1.981946e-01 -1.486651e-01 3.708758e-01 1.458565e-01 2.626247e-01 7.532046e-01 2.205944e-01 -5.144112e-02 3.406037e-01 -9.871057e-01
<VARIANCE> 39
 7.125826e+00 7.082598e+00 5.877085e+00 5.821456e+00 1.316136e+01 1.253944e+01 1.533334e+01 1.002888e+01 1.176106e+01 1.894343e+01 1.851491e+01 1.228249e+01 1.013896e+01 9.230119e-01 3.193743e+00 2.047317e+00 9.816950e-01 1.221287e+00 1.824983e+00 1.555809e+00 2.027993e+00 3.618956e+00 1.782650e+00 1.812124e+00 1.405669e+00 2.649325e+00 1.492984e-01 3.254157e-01 2.577614e-01 1.557942e-01 2.089022e-01 3.073714e-01 2.493416e-01 3.788345e-01 3.989269e-01 3.052095e-01 3.864363e-01 2.428659e-01 2.401130e-01
<GCONST> 9.268249e+01
<MIXTURE> 13 4.848185e-02
<MEAN> 39
 1.085544e+00 -3.381324e+00 -1.883840e+00 6.570344e+00 4.579618e+00 -2.678409e+00 4.334596e-01 7.907739e-01 -6.890624e-02 1.361899e+00 -1.110121e-03 1.184590e+00 -1.655101e+00 5.415629e-01 -2.441252e+00 -3.102001e+00 -9.927195e-01 -2.567850e-02 -1.238336e+00 -1.011292e+00 -9.807186e-01 -2.560544e+00 -9.555976e-01 -8.217884e-01 -1.405692e+00 4.278562e+00 -3.200716e-01 2.266178e-01 4.687817e-02 -6.605328e-02 -1.490457e-02 2.254821e-01 -2.048958e-01 1.528952e-01 1.921783e-01 -1.488540e-01 2.724626e-01 8.247293e-03 1.901152e-02
<VARIANCE> 39
 7.195576e+00 7.568030e+00 1.617951e+01 7.571439e+00 6.404665e+00 2.010844e+01 1.697700e+01 1.563299e+01 1.811594e+01 6.371764e+00 1.411563e+01 2.243194e+01 1.014708e+01 2.174314e+00 2.332733e+00 1.560234e+00 2.206004e+00 4.078413e+00 3.130384e+00 3.303829e+00 2.589616e+00 4.300752e+00 3.951272e+00 1.682626e+00 1.707342e+00 1.414174e+00 1.495453e-01 1.464069e-01 2.629966e-01 2.348925e-01 1.292642e-01 2.889194e-01 2.557972e-01 2.704453e-01 5.269442e-01 1.543201e-01 1.497760e-01 2.517134e-01 8.213086e-02
<GCONST> 9.468242e+01
<MIXTURE> 14 1.624272e-02
<MEAN> 39
 2.513633e+00 8.679793e-01 -8.139698e-01 4.307961e+00 7.616322e+00 2.668467e+00 3.727965e+00 1.624329e-01 1.546636e-01 4.173041e-01 5.579914e+00 8.297436e+00 -1.030317e+01 -1.616471e-01 7.110326e-01 1.514554e-01 -5.575030e-01 6.414762e-02 4.819916e-01 4.633531e-01 4.146126e-01 1.160338e+00 -7.965186e-01 3.564449e-02 2.606496e-01 -4.465211e-01 -2.040730e-01 1.824244e-01 6.668045e-01 1.908210e-01 -2.112340e-01 -1.393742e-01 -7.496734e-01 3.987270e-02 1.197483e+00 6.607823e-01 -8.027279e-01 -7.875376e-01 -3.872492e-02
<VARIANCE> 39
 3.548589e+00 8.020328e+00 2.172238e+01 1.607269e+01 2.118629e+01 3.357610e+01 1.118327e+01 5.395922e+00 2.153801e+01 8.288137e+00 2.594900e+01 1.129664e+01 8.623631e+00 8.102854e-01 4.239971e+00 2.136523e+00 2.083897e+00 3.661724e+00 1.282445e+00 2.032698e+00 7.163890e-01 3.429907e+00 7.446866e-01 2.773723e+00 3.277221e+00 2.637421e+00 9.299563e-02 1.849179e-01 4.705794e-01 5.066515e-01 3.561127e-01 7.218774e-01 2.577044e-01 1.763635e-01 2.260283e-01 2.018638e-01 5.810449e-01 1.769778e-01 1.058159e-01
<GCONST> 9.577880e+01
<MIXTURE> 15 7.965594e-02
<MEAN> 39
 -3.349944e-01 6.839628e+00 4.230089e+00 4.146271e+00 5.861304e+00 3.562767e+00 1.567111e+00 2.059564e+00 8.501596e+00 6.957632e-01 2.164335e-01 6.157929e+00 -1.313184e+01 -2.120716e-01 -7.826336e-01 1.371092e-01 8.931834e-01 -1.571986e-01 -4.177513e-01 1.250675e-01 -1.167042e-02 -1.064195e+00 -1.423778e-01 8.369859e-01 -1.889349e-01 4.650846e-01 -2.301851e-02 -5.240632e-01 -3.215129e-01 2.986312e-01 -9.731857e-02 -3.661416e-01 -1.819946e-01 -2.273293e-02 -3.634894e-01 2.130472e-01 2.005100e-01 -4.963662e-01 5.734529e-01
<VARIANCE> 39
 3.738253e+00 6.586411e+00 5.520831e+00 1.162578e+01 1.594035e+01 1.557035e+01 1.902810e+01 2.021877e+01 1.910297e+01 2.701320e+01 1.984550e+01 1.618838e+01 5.532435e+00 4.097846e-01 8.195357e-01 9.373811e-01 7.804957e-01 1.258708e+00 1.942816e+00 1.536026e+00 2.374139e+00 2.469427e+00 2.750001e+00 2.075569e+00 1.660958e+00 3.469933e-01 1.054888e-01 1.555556e-01 2.238685e-01 2.356808e-01 2.671084e-01 4.056690e-01 2.597691e-01 3.610870e-01 4.318191e-01 3.622415e-01 4.609759e-01 2.908912e-01 9.882184e-02
<GCONST> 8.929797e+01
<MIXTURE> 16 6.637601e-02
<MEAN> 39
 2.060789e+00 -4.766003e+00 -5.932618e+00 8.806511e+00 4.370443e+00 -3.814784e+00 -2.295436e+00 -2.432228e+00 -5.618321e-01 -3.746414e+00 1.467079e+00 -2.738204e-01 1.582208e+00 2.246789e-01 -1.102069e+00 -1.056938e+00 -1.503988e+00 1.558409e-01 -9.302489e-01 -3.138213e-01 -2.381110e-01 -1.058500e+00 -1.184415e-01 -2.126604e-01 -4.689061e-01 2.370806e+00 -4.195264e-01 3.288647e-01 5.014231e-01 -2.529710e-01 1.339770e-01 3.535185e-01 6.472602e-02 4.728029e-01 2.551785e-01 3.078374e-01 2.861726e-01 3.358876e-01 -4.022374e-01
<VARIANCE> 39
 8.671124e+00 5.969043e+00 9.160936e+00 1.415395e+01 1.974372e+01 2.814103e+01 2.868422e+01 1.475837e+01 1.677095e+01 1.603676e+01 3.717590e+01 1.725374e+01 1.694058e+01 1.247336e+00 1.046850e+00 1.705492e+00 1.794922e+00 1.741407e+00 1.814461e+00 1.977953e+00 2.295492e+00 1.549401e+00 1.820447e+00 2.639941e+00 1.266819e+00 1.105582e+00 8.614700e-02 1.305629e-01 2.429445e-01 2.184506e-01 4.002306e-01 4.109959e-01 3.902800e-01 2.919888e-01 4.244473e-01 3.263861e-01 3.158230e-01 2.761047e-01 1.928443e-01
<GCONST> 9.667597e+01
<STATE> 3
<NUMMIXES> 16
<MIXTURE> 1 1.285906e-02
<MEAN> 39
 -1.494300e+00 7.534590e+00 4.617281e+00 5.154031e+00 4.277385e+00 4.599118e-01 -2.562982e+00 -2.551760e+00 6.733839e+00 3.183279e+00 1.307096e+00 1.063955e+00 -9.196461e+00 -5.145264e-01 -8.886743e-01 -4.689768e-01 5.672381e-01 3.547421e-02 6.484118e-01 1.192434e+00 1.010952e+00 8.596132e-01 -1.285527e+00 1.254534e+00 -1.265921e-01 2.112851e-01 8.871458e-02 -4.009436e-01 8.060359e-03 -2.750231e-01 -6.819723e-01 -5.534624e-01 2.926140e-01 1.026676e-01 -5.923967e-02 -1.738565e-01 1.522255e-01 7.076548e-02 4.496076e-01
<VARIANCE> 39
 7.542680e+00 7.214693e-01 9.519273e+00 3.855350e+00 1.250595e+01 4.100844e+01 2.045255e+01 3.041428e+01 1.675180e+01 3.184205e+00 2.438081e+01 5.552139e+00 1.787145e+00 6.390160e-02 1.877836e+00 3.328962e-01 4.577019e-01 2.951835e-01 2.172625e+00 1.525406e+00 5.023502e-01 7.278104e-01 1.963823e+00 6.078517e-01 1.538632e-01 4.977170e-01 9.173962e-02 2.744134e-01 1.327032e-01 9.045247e-02 1.572210e-01 3.872064e-01 2.270495e-01 2.313658e-01 3.898829e-01 2.332376e-01 3.405312e-01 1.834378e-01 9.135943e-02
<GCONST> 7.027676e+01
<MIXTURE> 2 7.718335e-02
<MEAN> 39
 -4.630779e+00 -5.142543e+00 -8.431902e+00 2.614061e+00 8.083623e+00 -6.600905e+00 2.079049e-03 -5.430508e+00 -7.881209e-01 -5.901334e+00 6.947168e-01 4.389432e+00 1.236871e+01 -1.804962e-01 5.831401e-01 7.573060e-02 -5.223666e-01 -1.186122e+00 4.400122e-01 7.889969e-01 7.592686e-01 -4.664399e-01 1.753719e-01 -3.720830e-01 -5.475515e-01 3.235703e-01 3.086606e-01 6.287980e-02 2.711322e-01 -3.885617e-01 -3.075548e-01 6.593759e-02 1.836817e-01 5.526624e-01 -2.576812e-01 4.073201e-01 -1.383346e-01 -4.186606e-01 -3.596158e-01
<VARIANCE> 39
 2.544296e+00 3.583034e+00 4.443182e+00 7.152457e+00 1.490759e+01 6.872461e+00 1.798045e+01 2.226105e+01 1.928820e+01 9.193939e+00 2.413239e+01 1.660137e+01 1.414043e+00 2.242747e-01 3.440015e-01 5.514634e-01 1.530931e+00 9.772212e-01 7.984397e-01 2.484951e+00 1.212900e+00 1.414614e+00 7.549005e-01 2.131524e+00 1.317676e+00 3.046114e-01 8.482961e-02 6.605256e-02 9.497813e-02 1.599902e-01 1.377696e-01 1.446450e-01 2.526674e-01 3.226983e-01 1.601156e-01 1.775936e-01 3.259862e-01 2.802904e-01 8.512900e-02
<GCONST> 7.330860e+01
<MIXTURE> 3 1.200362e-01
<MEAN> 39
 -7.026392e-01 -9.332178e+00 -7.778145e+00 3.838091e+00 4.027763e+00 1.359316e-01 -6.912652e+00 2.318550e+00 -7.029853e+00 -3.367088e+00 4.384541e+00 -1.609556e+00 9.672118e+00 9.963136e-02 1.518280e-01 3.247308e-02 -7.853649e-01 -6.836257e-01 7.249524e-01 3.344662e-01 2.099339e-01 -6.939791e-01 -3.197211e-01 -2.603646e-01 1.320284e-01 4.732103e-01 8.778138e-02 2.972606e-01 2.791341e-01 -3.454752e-01 -2.028694e-01 -1.104250e-01 5.769143e-01 -5.125884e-02 1.618556e-01 1.266945e-01 -3.719619e-01 -6.854714e-02 -2.898526e-01
<VARIANCE> 39
 5.920363e+00 9.758029e+00 8.349291e+00 8.654849e+00 1.050411e+01 1.430510e+01 7.571726e+00 6.747890e+00 1.933819e+01 2.048861e+01 1.104649e+01 1.000813e+01 3.218348e+00 3.726406e-01 7.142284e-01 8.438411e-01 1.308031e+00 1.024983e+00 1.713201e+00 1.653342e+00 1.026653e+00 1.135659e+00 8.727039e-01 9.483213e-01 1.072461e+00 3.620340e-01 5.156521e-02 1.624018e-01 1.799915e-01 1.742439e-01 2.559242e-01 2.911722e-01 2.315328e-01 2.084435e-01 4.564535e-01 1.782247e-01 1.947690e-01 1.478882e-01 5.048232e-02
<GCONST> 7.676054e+01
<MIXTURE> 4 9.158610e-02
<MEAN> 39
 8.964396e-01 -5.505112e+00 -7.917409e+00 9.984094e-01 4.974971e+00 -2.518090e+00 -6.712970e-01 1.558621e+00 -5.423615e+00 -1.792655e+00 -1.500192e+00 2.759514e+00 6.790939e+00 -6.294412e-02 6.856265e-02 -3.915896e-01 -9.164913e-01 -5.550974e-02 1.750473e-01 -1.529424e-01 5.090784e-01 -8.041238e-01 -9.848770e-02 1.834029e-01 -3.549078e-01 7.604982e-01 -1.633758e-01 2.004714e-01 4.180646e-01 2.922511e-01 -2.614236e-01 1.583709e-01 7.102659e-02 -1.022667e-01 2.525229e-01 1.167955e-01 1.630972e-01 -1.507313e-01 -3.675098e-01
<VARIANCE> 39
 5.563276e+00 4.827454e+00 7.680165e+00 9.373545e+00 1.235627e+01 1.511313e+01 8.389252e+00 1.167806e+01 2.063571e+01 1.193390e+01 1.688987e+01 1.415526e+01 4.131433e+00 3.362592e-01 1.868683e-01 1.113695e+00 1.204509e+00 1.187370e+00 9.573454e-01 7.299041e-01 1.308586e+00 1.862522e+00 8.724646e-01 1.496356e+00 1.297149e+00 4.422921e-01 9.723262e-02 6.679299e-02 1.583647e-01 1.597317e-01 3.626472e-01 1.636688e-01 1.399405e-01 3.249918e-01 3.318549e-01 2.263323e-01 3.797074e-01 3.366754e-01 6.619901e-02
<GCONST> 7.741261e+01
<MIXTURE> 5 1.286375e-02
<MEAN> 39
 3.345614e+00 -1.530842e+00 4.122810e+00 -1.099105e+01 -2.223234e+00 -8.117687e+00 1.532586e+00 1.072476e+01 -6.137977e+00 4.485354e+00 -2.229634e+00 -3.902069e+00 3.647359e+00 1.878327e+00 2.732064e+00 1.691118e+00 8.244452e-01 -1.738087e+00 -4.819700e-01 -3.424832e+00 1.079062e+00 7.988714e-02 1.533587e+00 2.731980e+00 1.265189e-01 -4.546447e+00 -1.509121e-01 4.458093e-01 -6.299869e-01 1.385240e+00 4.437184e-01 -1.921144e-02 -2.492179e-01 -1.481058e+00 1.378395e-01 -6.917258e-01 4.216515e-01 1.341715e+00 -4.902218e-01
<VARIANCE> 39
 4.176534e+00 5.405610e+00 9.640714e+00 5.019390e+00 9.642573e+00 6.095170e+00 2.129652e+01 6.061710e+00 1.591778e+01 3.342197e+00 1.250048e+01 7.880186e+00 1.121921e+01 4.032320e-01 1.110571e+00 4.146978e-01 2.208464e+00 4.198613e-01 1.395659e+00 2.179616e+00 1.908163e+00 4.581349e-01 1.526037e+00 7.237676e-01 2.241210e+00 5.145191e-01 8.264599e-02 3.247467e-02 4.420662e-02 2.859159e-01 1.012582e-01 4.825147e-02 4.278480e-01 2.436610e-01 2.983118e-01 1.046460e-01 4.929126e-01 2.867698e-01 1.602302e-01
<GCONST> 7.292207e+01
<MIXTURE> 6 1.167101e-01
<MEAN> 39
 -1.191084e+00 -6.542025e+00 -5.867019e+00 -1.258927e+00 1.417522e+00 5.558308e-01 -4.241787e-01 3.321687e-01 -8.457927e+00 -1.557268e+00 1.610795e+00 -1.453089e+00 1.012928e+01 4.118728e-01 1.015397e+00 6.552685e-01 -2.255353e+00 -2.253000e+00 6.266908e-01 1.221384e+00 1.250166e+00 -3.479882e-01 -3.106346e-02 -1.273569e+00 -9.376167e-01 -3.737577e-01 3.584908e-01 5.810122e-01 4.557696e-01 1.526385e-01 -4.809462e-01 -6.492141e-01 -2.629623e-01 2.579360e-01 7.674368e-01 2.518289e-01 -2.214140e-01 -6.026941e-02 -7.684143e-01
<VARIANCE> 39
 8.620032e+00 1.062943e+01 1.116134e+01 1.289314e+01 1.446039e+01 2.345632e+01 2.420836e+01 1.832758e+01 1.277033e+01 1.742146e+01 1.353387e+01 1.755204e+01 4.737490e+00 3.557869e-01 6.335750e-01 6.428333e-01 1.272878e+00 1.676833e+00 3.154550e+00 1.837300e+00 1.515868e+00 1.938414e+00 1.743368e+00 2.441787e+00 2.189058e+00 3.084728e-01 7.630726e-02 1.008858e-01 1.841497e-01 2.878022e-01 1.622088e-01 3.697161e-01 4.773634e-01 1.963330e-01 2.758299e-01 3.317600e-01 3.647839e-01 2.128187e-01 6.904332e-02
<GCONST> 8.762817e+01
<MIXTURE> 7 6.220134e-02
<MEAN> 39
 1.603133e+00 1.030500e+01 3.713597e+00 1.309247e+00 -2.881173e+00 -7.269619e+00 -5.156740e+00 -4.527370e+00 5.518956e+00 2.031190e+00 3.099958e+00 4.731561e+00 -7.793597e+00 -7.332788e-01 -3.483604e-02 4.848673e-01 1.010126e+00 1.123694e+00 1.009359e+00 -2.604469e-01 -3.935518e-01 5.714564e-01 -7.260806e-04 8.577041e-02 4.642822e-01 -5.583407e-01 -1.421686e-01 -8.167630e-01 1.650135e-01 -2.749892e-01 -3.160943e-01 6.080303e-01 5.412093e-01 1.575714e-01 -1.734719e-01 -1.410612e-01 -3.020161e-01 -4.918720e-01 6.270422e-01
<VARIANCE> 39
 3.612667e+00 4.464861e+00 3.816467e+00 1.308230e+01 1.608517e+01 1.248060e+01 1.590385e+01 7.537959e+00 1.204328e+01 2.008512e+01 1.791246e+01 9.071905e+00 2.829710e+00 1.312047e-01 7.391793e-01 5.604249e-01 6.684655e-01 1.171684e+00 1.352870e+00 1.864364e+00 1.610712e+00 1.904745e+00 2.194573e+00 1.236590e+00 1.233791e+00 2.106727e-01 5.819541e-02 1.643696e-01 1.454925e-01 1.953187e-01 1.982372e-01 4.569279e-01 3.602220e-01 3.760888e-01 3.457422e-01 7.378232e-01 3.002434e-01 2.148611e-01 8.700424e-02
<GCONST> 7.945730e+01
<MIXTURE> 8 8.691441e-02
<MEAN> 39
 -1.329628e+00 -2.910205e+00 -5.996593e+00 -5.105980e+00 -3.906204e+00 -7.151523e-01 2.684675e+00 5.223863e+00 -8.341675e+00 -2.270392e+00 -2.467801e+00 -3.399877e+00 9.918458e+00 1.497722e+00 2.014358e+00 2.017741e+00 -1.003302e+00 -3.065960e+00 -1.315914e+00 -2.472825e-01 1.818445e+00 1.179855e+00 1.443446e+00 -7.417429e-01 -9.968531e-01 -2.395633e+00 4.970330e-01 4.881243e-01 5.673153e-01 8.406693e-01 5.365621e-01 -7.067229e-01 -9.394396e-01 -7.237889e-01 7.278140e-01 2.818983e-01 6.657717e-01 6.682257e-01 -1.192360e+00
<VARIANCE> 39
 4.423165e+00 9.922638e+00 6.624633e+00 1.145178e+01 2.254188e+01 3.038663e+01 1.605899e+01 1.532078e+01 7.308729e+00 1.800534e+01 1.396105e+01 1.768888e+01 3.835676e+00 5.325865e-01 6.939749e-01 8.991507e-01 2.138153e+00 1.243451e+00 2.062325e+00 3.417690e+00 1.810249e+00 2.497104e+00 2.257318e+00 2.247577e+00 2.153991e+00 1.033180e+00 5.703350e-02 1.525578e-01 1.408272e-01 3.211800e-01 5.167925e-01 8.138402e-01 3.096599e-01 3.322887e-01 4.037929e-01 3.793531e-01 5.117472e-01 6.137331e-01 5.244128e-02
<GCONST> 9.235477e+01
<MIXTURE> 9 4.173535e-02
<MEAN> 39
 6.988084e+00 8.222690e+00 2.770961e+00 1.422226e+00 -4.040896e+00 -6.547442e+00 -7.915173e+00 -5.301719e-01 2.016991e-01 5.463238e-01 -9.293752e-01 2.123984e+00 -7.817773e+00 5.675146e-01 1.681319e+00 8.902634e-01 -1.291663e-01 1.503181e+00 8.260884e-01 -9.617304e-01 -2.335119e+00 2.118181e-01 -5.664566e-01 2.186646e-01 9.207863e-01 -2.154656e+00 -6.513605e-01 -7.502171e-01 -4.154988e-01 -4.199714e-01 -3.090324e-02 3.849140e-01 8.486121e-01 4.704036e-01 -2.563382e-01 -1.607414e-01 -2.261035e-01 -3.969338e-01 1.072256e+00
<VARIANCE> 39
 7.107496e-01 5.712440e+00 6.360756e+00 9.542425e+00 1.202273e+01 1.760178e+01 6.573726e+00 1.421967e+01 1.333696e+01 1.438299e+01 2.411119e+01 9.599400e+00 2.149325e+00 6.330268e-01 9.648538e-01 1.927289e+00 1.611653e+00 1.417878e+00 1.483692e+00 1.802518e+00 2.158136e+00 1.287599e+00 2.386268e+00 2.203673e+00 2.103621e+00 8.680166e-01 1.950821e-02 1.811673e-01 2.432515e-01 2.221422e-01 2.922781e-01 5.899488e-01 1.621028e-01 4.051920e-01 3.501328e-01 4.528978e-01 4.950767e-01 1.786140e-01 7.798491e-02
<GCONST> 8.393775e+01
<MIXTURE> 10 4.288217e-03
<MEAN> 39
 -4.296959e+00 -6.479593e+00 4.425393e+00 9.774822e+00 4.679135e+00 -5.933774e-01 7.319582e+00 2.344196e+00 7.718621e+00 -3.817153e+00 2.577579e+00 7.149068e-01 -2.880985e+00 2.119061e+00 -2.535758e+00 -4.593336e-01 -1.389248e+00 -2.345312e+00 -2.750570e+00 -3.651405e-01 -1.772939e+00 -2.314792e+00 -2.493959e+00 -6.382945e-01 -6.666054e-01 2.955411e+00 6.818298e-01 7.836743e-01 -8.798044e-01 -7.303905e-01 -5.204422e-02 1.716132e-01 -1.073258e+00 -6.222112e-01 -9.191325e-01 5.748999e-02 -5.231842e-01 -7.148015e-02 2.416172e-01
<VARIANCE> 39
 5.733588e+00 5.783795e-01 1.363773e+00 9.628803e+00 3.012590e+01 8.397731e+00 1.861781e+00 1.032547e+01 3.289184e+01 1.879751e+01 2.938571e+00 4.986034e+00 2.892354e+00 8.299072e-01 2.249884e+00 2.335391e+00 1.722743e+00 3.119650e-01 4.882859e-01 1.081136e+00 1.178201e+00 1.328462e+00 2.503449e-01 9.895889e-01 1.407231e-01 7.826627e-02 2.138176e-01 7.383919e-02 1.986409e-01 1.164966e-01 3.303627e-01 2.447197e-01 6.457444e-02 4.131780e-01 2.631804e-01 2.576413e-01 2.017727e-01 2.049076e-02 7.414494e-02
<GCONST> 6.403607e+01
<MIXTURE> 11 1.385587e-01
<MEAN> 39
 -6.005462e-01 -6.228244e+00 -4.896398e+00 4.247664e+00 5.019205e+00 -4.903261e+00 -3.888829e+00 -2.384104e+00 -2.682356e+00 -7.697617e-01 1.631165e+00 -1.917447e+00 7.809513e+00 -1.770166e-01 5.008291e-03 1.039896e-01 -6.460383e-01 -5.049344e-01 1.016979e+00 2.203216e-01 -3.378462e-01 -7.021265e-01 3.543402e-01 3.358325e-01 -6.941585e-02 4.852552e-01 4.373423e-02 4.939287e-02 -6.517414e-03 -2.191432e-01 -2.843621e-01 2.722077e-01 2.046868e-01 1.583939e-01 -8.183198e-02 -2.292497e-01 -4.144279e-02 6.164604e-02 -1.139375e-01
<VARIANCE> 39
 8.968861e+00 6.243392e+00 5.696347e+00 2.090275e+01 1.714408e+01 1.235231e+01 1.642940e+01 1.009222e+01 1.960232e+01 1.875766e+01 2.380508e+01 1.912601e+01 6.636127e+00 2.979107e-01 3.422949e-01 8.908236e-01 7.626683e-01 7.861586e-01 1.339388e+00 1.407319e+00 1.200397e+00 1.600743e+00 1.713073e+00 1.571083e+00 1.316020e+00 2.888771e-01 4.661780e-02 9.748667e-02 1.100329e-01 1.931620e-01 1.590180e-01 2.048908e-01 1.652260e-01 1.970557e-01 2.650517e-01 2.566129e-01 2.937630e-01 1.483114e-01 3.982832e-02
<GCONST> 7.813066e+01
<MIXTURE> 12 3.564219e-02
<MEAN> 39
 3.367418e+00 -4.843150e+00 -3.980114e-01 -8.952453e+00 -5.943544e+00 5.330166e+00 7.050693e-01 -5.654821e-01 -6.064311e+00 -2.020746e+00 -1.991501e+00 -5.597401e+00 6.938689e+00 6.462274e-01 2.682919e+00 1.713869e+00 -1.001534e+00 -2.337574e+00 -1.059707e+00 7.497032e-01 3.169191e-01 2.125395e+00 -3.977706e-01 -1.189832e+00 -8.517990e-01 -2.025311e+00 -7.156661e-02 8.837574e-01 -3.055110e-02 1.278094e+00 6.400111e-01 -1.386396e+00 -6.877531e-01 -1.121428e-01 5.562227e-01 5.514466e-01 5.705273e-01 6.978622e-01 -8.772535e-01
<VARIANCE> 39
 1.891938e+00 4.736457e+00 7.763301e+00 1.391321e+01 1.411712e+01 9.698284e+00 1.343916e+01 1.438645e+01 1.987860e+01 2.341018e+01 2.612566e+01 2.147040e+01 3.435949e+00 8.815996e-02 1.024959e+00 9.940370e-01 2.468291e+00 1.072396e+00 3.339378e+00 2.816876e+00 1.511618e+00 2.510020e+00 2.281703e+00 3.559838e+00 2.144401e+00 8.293439e-01 4.395611e-02 8.456023e-02 9.511366e-02 3.446738e-01 3.365369e-01 5.303495e-01 4.282510e-01 2.769752e-01 3.492892e-01 3.693654e-01 8.945074e-01 3.763819e-01 3.760753e-02
<GCONST> 8.796674e+01
<MIXTURE> 13 5.443052e-02
<MEAN> 39
 2.976173e+00 2.184265e-01 -2.820084e+00 -2.566284e+00 -7.264356e+00 -5.115644e+00 3.036366e-01 8.110867e+00 -3.740229e+00 -3.902325e-01 -3.394082e+00 -2.720260e+00 3.417456e+00 1.628393e+00 2.902761e+00 2.774816e+00 1.107435e+00 -1.635496e+00 -1.770969e+00 -1.293576e+00 -1.201542e+00 2.174662e+00 1.513376e+00 4.689428e-01 9.556405e-01 -4.003953e+00 -8.234487e-02 1.748540e-01 1.123973e-01 4.526424e-01 1.087588e+00 3.013935e-01 -7.103889e-01 -1.314362e+00 5.896247e-02 -1.463526e-01 5.732844e-01 5.603798e-01 -4.085244e-01
<VARIANCE> 39
 3.696773e+00 8.520882e+00 9.984204e+00 1.757351e+01 1.513172e+01 1.563324e+01 1.404030e+01 1.265119e+01 1.645988e+01 2.567590e+01 1.523229e+01 1.184207e+01 7.852686e+00 6.514756e-01 1.268457e+00 8.834855e-01 1.955403e+00 2.898256e+00 3.514083e+00 2.242046e+00 3.653787e+00 1.606562e+00 1.963839e+00 2.144948e+00 1.300087e+00 7.679446e-01 7.845979e-02 1.564578e-01 2.052210e-01 3.351622e-01 3.842654e-01 4.598114e-01 3.165154e-01 2.109740e-01 5.780692e-01 6.241659e-01 3.924782e-01 2.583842e-01 1.358718e-01
<GCONST> 9.411267e+01
<MIXTURE> 14 3.575594e-02
<MEAN> 39
 5.855098e+00 5.972733e+00 3.282919e+00 -4.869864e+00 -5.308441e+00 -8.568834e+00 -5.002823e+00 6.543897e+00 -7.520108e+00 6.216729e+00 2.614423e+00 -3.909285e-01 -4.472896e+00 1.514211e+00 2.401217e+00 1.304267e+00 1.225201e+00 9.349392e-01 -1.238315e+00 -1.966011e+00 -2.417004e+00 8.389114e-01 6.353248e-01 8.274165e-01 3.046114e+00 -3.840333e+00 -6.150540e-01 -4.385039e-01 -6.293268e-01 4.158687e-01 4.985004e-01 6.634367e-01 6.333082e-01 -6.470997e-01 2.560179e-01 -7.889810e-01 -4.327624e-01 1.641545e-01 7.165719e-01
<VARIANCE> 39
 2.056411e+00 3.996224e+00 7.976740e+00 8.969831e+00 1.363594e+01 1.865949e+01 2.561721e+01 2.089584e+01 1.891328e+01 2.496203e+01 2.103454e+01 2.314554e+01 5.632988e+00 6.604762e-01 6.938810e-01 1.542060e+00 2.125049e+00 1.911000e+00 1.804205e+00 1.850125e+00 1.279142e+00 2.448034e+00 2.834477e+00 2.741579e+00 2.579603e+00 6.240292e-01 3.982115e-02 1.582951e-01 9.206935e-02 2.223921e-01 4.574681e-01 2.555411e-01 3.701892e-01 4.916646e-01 2.691640e-01 5.690105e-01 4.831869e-01 6.373366e-01 8.814074e-02
<GCONST> 9.158901e+01
<MIXTURE> 15 7.302701e-02
<MEAN> 39
 5.313724e+00 7.338053e+00 3.535290e+00 -1.808190e+00 -8.657674e+00 -8.250885e+00 -2.745382e+00 -7.773078e-01 1.988374e+00 2.046142e+00 2.520228e+00 5.127541e-01 -5.640467e+00 3.678407e-01 2.850716e+00 9.231944e-01 1.322111e+00 1.593217e+00 -2.198987e+00 -1.705776e+00 -1.653942e+00 1.706384e+00 6.384783e-01 1.035107e+00 2.042768e+00 -3.147406e+00 -5.113453e-01 -8.304010e-01 -5.427759e-01 -9.600546e-02 8.554405e-01 9.673496e-01 5.185564e-02 -2.623750e-02 -6.658638e-01 -3.251670e-01 -1.937468e-01 -1.287609e-02 8.615544e-01
<VARIANCE> 39
 4.002983e+00 9.020723e+00 7.648591e+00 2.426429e+01 9.327485e+00 2.665928e+01 1.173798e+01 2.516983e+01 1.586589e+01 1.731618e+01 1.359656e+01 1.637833e+01 4.253408e+00 1.237837e+00 8.754553e-01 1.389013e+00 2.611590e+00 1.869702e+00 4.494398e+00 1.508394e+00 2.469221e+00 2.546736e+00 3.254247e+00 2.555854e+00 1.511939e+00 1.210202e+00 8.310856e-02 1.920773e-01 1.455656e-01 3.138326e-01 3.450957e-01 4.814314e-01 3.575965e-01 4.277605e-01 3.456832e-01 3.599188e-01 3.285011e-01 1.994265e-01 9.960508e-02
<GCONST> 9.461884e+01
<MIXTURE> 16 3.620786e-02
<MEAN> 39
 3.382785e+00 8.568099e-01 2.238603e+00 -6.452367e+00 -1.231144e+01 1.352457e-01 6.230494e-01 2.311154e+00 -1.556137e+00 1.117628e+00 -2.252857e+00 -7.917372e+00 2.381941e+00 1.581707e+00 3.514199e+00 1.863526e+00 1.022422e+00 -3.761596e-02 -3.446841e+00 -1.491401e+00 -3.484505e-01 2.319741e+00 1.169574e+00 1.285122e+00 1.355024e+00 -4.276553e+00 -2.634738e-01 6.919593e-02 -4.439689e-01 7.526270e-01 1.527052e+00 -4.584022e-01 -6.244804e-01 -5.030088e-01 -2.011726e-01 3.011948e-02 6.629213e-01 9.953831e-01 -1.097915e-01
<VARIANCE> 39
 3.448805e+00 4.437996e+00 4.681354e+00 1.377944e+01 1.200458e+01 1.511275e+01 1.274212e+01 1.978501e+01 2.462517e+01 2.845967e+01 3.172273e+01 1.623387e+01 4.569486e+00 1.781345e+00 7.500354e-01 1.111633e+00 3.135336e+00 1.177596e+00 3.679193e+00 2.812166e+00 2.021672e+00 2.958220e+00 1.945915e+00 1.720100e+00 1.181287e+00 5.269570e-01 7.317108e-02 1.089656e-01 1.523244e-01 3.476024e-01 2.516142e-01 4.739764e-01 4.050370e-01 3.789476e-01 3.846518e-01 6.691684e-01 6.915591e-01 4.282950e-01 1.067782e-01
<GCONST> 9.359810e+01
<STATE> 4
<NUMMIXES> 16
<MIXTURE> 1 1.469407e-01
<MEAN> 39
 6.765783e+00 9.734729e+00 3.228087e+00 -2.189486e+00 -3.291754e+00 -8.228374e+00 -6.271742e+00 -1.286626e+00 -6.884806e-01 2.865051e+00 1.201044e+00 3.388714e+00 -9.350351e+00 -1.275334e-01 5.369771e-01 3.751008e-01 4.397709e-01 3.275943e-01 3.411095e-01 1.054359e-02 -7.289108e-01 7.070920e-01 -4.838839e-01 -4.189068e-01 3.929087e-01 -7.404811e-01 -4.966586e-01 -8.816580e-01 1.480288e-01 -5.148650e-02 -5.714816e-01 3.646546e-01 5.682000e-01 3.640587e-01 2.137536e-01 1.408756e-02 -3.939984e-01 -5.971127e-01 9.112544e-01
<VARIANCE> 39
 1.855418e+00 3.688537e+00 8.379442e+00 1.458177e+01 9.164382e+00 1.529287e+01 1.669896e+01 1.853789e+01 2.571185e+01 1.771506e+01 2.589919e+01 1.480602e+01 2.908509e+00 2.034990e-01 5.497204e-01 5.629332e-01 7.110359e-01 1.360373e+00 1.428640e+00 1.439802e+00 1.784506e+00 1.827896e+00 1.915330e+00 1.701594e+00 1.084082e+00 3.301838e-01 6.363764e-02 2.584928e-01 2.052322e-01 3.306388e-01 2.179467e-01 3.316933e-01 5.485355e-01 3.896819e-01 4.772352e-01 5.845329e-01 4.601599e-01 4.015387e-01 1.450396e-01
<GCONST> 8.561769e+01
<MIXTURE> 2 5.402011e-02
<MEAN> 39
 -4.400627e-02 -4.605291e-01 1.067677e+01 4.324080e+00 -6.482201e+00 -2.223754e+00 -4.512711e-01 -6.066889e+00 2.594885e+00 2.696708e+00 -2.152062e+00 3.658133e-01 -3.381557e+00 -1.671740e+00 -2.906555e+00 2.136904e-01 -2.165755e+00 -2.712007e+00 1.268970e+00 2.489600e+00 6.269623e-01 9.819347e-01 2.241807e+00 -2.042907e+00 -2.499214e+00 3.745992e+00 3.961692e-01 8.767140e-01 -9.806830e-01 -1.780374e+00 -1.534898e-01 5.992695e-03 -1.186584e-01 7.472154e-01 -1.731350e-01 -1.875505e-01 -4.568798e-01 -3.786701e-01 4.294656e-01
<VARIANCE> 39
 9.987878e+00 1.228658e+01 9.807290e+00 1.133049e+01 1.271453e+01 1.623379e+01 1.151337e+01 1.928969e+01 1.182417e+01 2.427146e+01 1.150408e+01 8.024823e+00 6.286343e+00 2.361725e-01 1.482277e+00 7.255715e-01 2.149972e+00 2.663002e+00 4.831755e+00 2.085536e+00 1.952574e+00 2.795315e+00 3.462672e+00 3.976778e+00 2.163662e+00 1.024640e+00 1.887136e-01 2.670473e-01 2.098536e-01 3.322555e-01 2.281832e-01 2.376647e-01 3.411646e-01 3.901454e-01 2.420121e-01 5.666513e-01 3.016209e-01 2.848132e-01 1.855075e-01
<GCONST> 9.504607e+01
<MIXTURE> 3 7.466027e-02
<MEAN> 39
 -5.866106e-01 2.699280e+00 6.700996e-01 -1.856211e+01 -5.535486e+00 -1.565511e+00 3.213708e+00 3.318184e+00 2.930059e+00 1.015856e-01 -1.379159e+01 -3.553699e+00 8.093410e+00 5.453094e-01 4.517387e-01 -2.192234e+00 -1.523950e+00 -1.198475e+00 1.004383e+00 3.207740e-01 -2.065901e-01 -1.272624e+00 -1.227725e+00 -9.538648e-01 -7.488858e-01 1.318593e+00 2.125522e-01 3.683170e-01 4.173887e-01 2.174099e+00 -1.236944e-01 -1.685392e-01 -3.576911e-01 -8.026780e-01 2.013923e-01 -1.368415e-01 1.714572e+00 3.538704e-01 -1.370950e+00
<VARIANCE> 39
 6.965170e+00 6.737631e+00 6.486677e+00 1.157667e+01 1.480540e+01 1.830504e+01 1.684544e+01 2.022555e+01 1.562235e+01 1.538744e+01 1.556092e+01 2.024948e+01 8.040012e+00 2.118319e+00 1.507586e+00 2.064768e+00 8.596715e+00 1.380050e+00 4.440803e+00 1.420271e+00 5.577734e+00 2.686167e+00 2.771147e+00 4.917147e+00 2.649462e+00 2.802126e+00 4.117430e-01 3.355703e-01 3.031685e-01 5.327305e-01 2.757818e-01 7.632893e-01 3.930429e-01 7.466580e-01 5.317182e-01 4.740811e-01 3.978906e-01 4.024664e-01 2.023355e-01
<GCONST> 1.067280e+02
<MIXTURE> 4 2.418077e-02
<MEAN> 39
 -2.140073e+00 1.902498e+00 1.262088e+01 -3.505116e+00 -5.463434e+00 2.076109e-01 -2.413173e+00 -8.836043e+00 1.097681e+01 -1.555839e+00 -4.636922e+00 4.587684e-01 -1.754141e+00 -1.686306e+00 -2.066144e+00 -3.122648e-01 -2.900079e+00 -7.309686e-01 2.213314e+00 1.087926e+00 6.533267e-01 1.521976e+00 -2.230283e-01 -1.479888e+00 -8.969544e-01 3.120652e+00 2.752005e-01 1.201221e-01 -1.358342e+00 -1.030851e+00 -4.612407e-01 1.136243e-01 6.598679e-02 1.138476e+00 -1.382221e+00 4.171235e-01 -3.407712e-01 -6.164420e-01 8.658460e-01
<VARIANCE> 39
 4.327394e+00 4.507862e+00 6.165965e+00 1.580191e+01 6.580214e+00 1.184574e+01 3.889117e+01 3.120067e+01 3.073118e+01 5.813176e+00 2.887934e+01 9.932340e+00 4.542703e+00 7.053009e-01 7.031146e-01 9.730484e-01 5.677548e+00 1.569346e+00 9.627519e-01 2.420493e+00 2.484630e+00 4.481570e+00 1.647105e+00 1.698593e+00 1.310781e+00 1.683711e+00 3.653120e-01 3.451618e-01 1.152191e-01 4.140962e-01 2.054939e-01 1.636400e-01 1.134338e+00 6.955413e-01 4.489742e-01 3.849604e-01 9.195572e-01 4.296118e-01 2.877390e-01
<GCONST> 9.690470e+01
<MIXTURE> 5 6.916352e-02
<MEAN> 39
 3.360655e-01 2.913052e+00 4.242855e+00 -1.664286e+01 -1.303821e+01 4.252963e+00 -2.597826e+00 2.702161e+00 4.942007e+00 4.020190e+00 -9.656511e+00 -7.988691e+00 5.576270e+00 5.840352e-01 1.187973e+00 -1.178692e+00 -2.051691e+00 -7.312120e-01 5.913038e-01 -5.959505e-01 8.969329e-01 -1.391245e+00 -1.171961e+00 -6.797494e-01 -1.442082e+00 8.853689e-01 -5.789645e-02 1.046705e-01 4.650733e-01 1.861835e+00 1.058947e+00 -7.926738e-01 1.469521e-01 -7.098998e-01 -1.484580e-01 -4.982020e-01 1.088917e+00 1.068320e+00 -1.151362e+00
<VARIANCE> 39
 3.490210e+00 4.192847e+00 3.976547e+00 2.126364e+01 1.348699e+01 1.470984e+01 2.230101e+01 1.399560e+01 1.842812e+01 2.465571e+01 1.343319e+01 1.131813e+01 4.564929e+00 1.736136e+00 2.506533e+00 1.241191e+00 6.700020e+00 2.686823e+00 2.436755e+00 2.021855e+00 2.250443e+00 2.118320e+00 2.251217e+00 2.774393e+00 1.321892e+00 2.347972e+00 4.976497e-01 3.292683e-01 2.056676e-01 5.310905e-01 4.005282e-01 4.365266e-01 6.905445e-01 2.775185e-01 3.497689e-01 8.244939e-01 2.858935e-01 2.788823e-01 3.522846e-01
<GCONST> 1.009561e+02
<MIXTURE> 6 6.058091e-02
<MEAN> 39
 -1.976749e+00 -3.970625e-01 6.315423e-01 -1.182749e+01 -1.093573e+01 1.987668e+00 8.175157e+00 -2.979094e+00 6.312211e+00 -4.298873e+00 -4.304381e+00 -4.867959e+00 8.271194e+00 -8.139178e-01 -2.172014e+00 -8.934653e-01 -9.981170e-01 1.546377e+00 1.473370e+00 6.994529e-01 -3.511154e-01 -1.854965e+00 -2.537088e-01 4.661307e-02 -3.617429e-01 2.154811e+00 4.783308e-04 -1.645163e-01 -2.481684e-01 -1.248534e-01 6.527208e-01 3.987285e-01 -4.084782e-01 2.671121e-01 -1.079665e+00 5.736639e-01 -6.335081e-01 1.439022e-01 2.288349e-01
<VARIANCE> 39
 5.051239e+00 1.926688e+01 1.055784e+01 1.285402e+01 9.753660e+00 1.698895e+01 7.225315e+00 9.109239e+00 2.744313e+01 2.029851e+01 1.846751e+01 1.141461e+01 8.330778e+00 6.685312e-01 1.830104e+00 9.849265e-01 1.998067e+00 1.260201e+00 2.723256e+00 2.395181e+00 1.363011e+00 3.819713e+00 1.647820e+00 3.178043e+00 2.247533e+00 1.321155e+00 2.159099e-01 5.110286e-01 2.325389e-01 4.725530e-01 2.158495e-01 1.841149e-01 3.493861e-01 3.025051e-01 2.985809e-01 3.156555e-01 4.384358e-01 2.833880e-01 2.178239e-01
<GCONST> 9.577905e+01
<MIXTURE> 7 2.966356e-02
<MEAN> 39
 -2.181815e+00 3.267199e+00 6.841833e+00 -1.216043e+01 -7.572059e+00 1.600877e+00 8.372443e-01 -6.479378e-02 1.119812e+01 -6.589144e-01 -4.854187e+00 -3.028459e+00 3.142831e+00 1.733126e-01 -8.519781e-01 -2.327435e+00 -4.809670e+00 -1.177005e+00 1.633276e+00 5.524415e-01 1.707746e+00 -1.559980e+00 -1.783506e-01 -3.268911e+00 -1.188679e+00 3.426183e+00 5.287292e-01 5.446002e-01 -5.183243e-01 1.040883e+00 -1.861433e-01 -3.774101e-01 -2.173372e-01 -1.582130e-01 -1.399844e+00 3.140505e-01 4.140640e-01 -1.981533e-01 -6.292907e-01
<VARIANCE> 39
 3.145337e+00 3.964182e+00 1.228986e+01 1.545233e+01 5.452673e+00 2.223758e+01 2.100691e+01 9.066795e+00 6.021945e+00 8.324868e+00 2.749038e+01 3.771524e+01 8.344348e+00 3.377857e+00 3.139711e+00 1.062586e+00 4.806203e+00 1.345522e+00 3.906745e+00 6.308350e+00 2.415006e+00 1.820798e+00 1.868174e+00 3.493504e+00 2.148736e+00 1.862592e+00 1.625190e-01 2.988780e-01 1.502003e-01 7.325399e-01 1.276083e-01 3.328511e-01 6.404441e-01 3.018390e-01 4.012858e-01 2.512571e-01 8.912750e-01 1.822326e-01 6.724858e-01
<GCONST> 1.001688e+02
<MIXTURE> 8 1.627929e-01
<MEAN> 39
 4.593525e+00 9.962299e+00 5.034782e+00 7.547801e-01 -2.476002e+00 -6.061128e+00 -5.421021e+00 -2.104138e+00 2.409991e+00 9.343576e-01 5.757405e-01 2.773440e+00 -9.911790e+00 -1.899300e+00 -2.579139e+00 1.421732e+00 -1.608993e-02 -9.969428e-01 1.326121e+00 1.705157e+00 -3.862625e-01 1.459805e+00 5.400319e-01 -1.441115e+00 -8.265189e-01 2.023624e+00 -3.167088e-01 -7.726879e-01 -3.039713e-01 -1.280266e+00 -7.642141e-01 3.883004e-01 6.011360e-01 5.156322e-01 1.579617e-02 3.668211e-01 -7.201962e-01 -6.754130e-01 1.399389e+00
<VARIANCE> 39
 7.873096e+00 4.890032e+00 7.834463e+00 1.481045e+01 1.691819e+01 2.151422e+01 1.585666e+01 2.066995e+01 3.150751e+01 1.620632e+01 2.619544e+01 2.293767e+01 3.754823e+00 6.019017e-01 1.616335e+00 1.166978e+00 3.527005e+00 1.988972e+00 2.063853e+00 2.873387e+00 2.062068e+00 3.096333e+00 2.672321e+00 2.612757e+00 2.210849e+00 1.492010e+00 1.352275e-01 3.020572e-01 2.023436e-01 6.081007e-01 3.532652e-01 4.442149e-01 5.126895e-01 3.880057e-01 5.586431e-01 5.236177e-01 6.817508e-01 3.738382e-01 1.799743e-01
<GCONST> 1.015028e+02
<MIXTURE> 9 1.301339e-02
<MEAN> 39
 -6.732301e+00 -3.074982e+00 8.361627e+00 -6.733154e+00 -6.907675e+00 5.382032e+00 3.931923e+00 -6.353288e+00 1.902763e+01 1.199705e+00 -6.544694e+00 4.251881e+00 2.177933e+00 1.710634e-02 -1.556409e+00 -4.696019e-01 -5.615839e+00 -1.236908e+00 1.336138e+00 -2.069662e-01 1.848051e+00 -6.159554e-01 -1.063078e+00 -2.635602e+00 -1.096707e+00 3.842789e+00 1.181373e+00 1.131831e+00 -1.142004e+00 -2.084707e-01 1.034875e-02 -9.796596e-01 -8.562644e-01 9.399676e-01 -1.976113e+00 -1.362301e-01 1.653540e-01 -7.104872e-01 -4.302403e-01
<VARIANCE> 39
 1.248553e+01 8.887132e+00 4.571525e+00 1.671008e+01 4.827516e+00 4.135676e+01 1.126950e+01 3.950496e+01 1.354853e+01 6.846868e+00 1.595052e+01 1.603014e+01 6.211715e+00 5.960380e-01 1.564234e+00 2.720306e+00 4.601299e+00 1.009966e+00 3.667709e+00 8.875161e+00 4.712953e+00 2.450512e+00 1.416812e+00 4.343757e+00 1.535111e+00 4.248251e-01 2.321084e-01 6.626481e-01 1.026731e-01 2.815627e-01 6.372791e-02 6.209854e-01 2.425826e-01 1.358833e+00 5.697742e-01 1.294320e-01 4.895801e-01 2.777422e-01 3.953673e-01
<GCONST> 9.851849e+01
<MIXTURE> 10 3.354119e-02
<MEAN> 39
 -3.116116e+00 -5.251219e+00 7.365469e+00 1.184564e+00 -9.602097e+00 2.374708e+00 6.177129e+00 -3.141513e+00 5.366765e+00 5.725011e+00 -4.014637e+00 -1.996984e-01 6.979949e-01 2.030062e-01 -1.019023e-01 -7.550375e-01 -3.756785e+00 -1.903365e+00 1.135847e+00 1.108069e+00 5.336254e-01 -2.506460e-01 2.602051e-01 -1.891383e+00 -2.236961e+00 2.435699e+00 7.298419e-01 1.810430e+00 -5.423478e-01 -9.383777e-01 6.750454e-01 -6.963149e-01 -1.048630e+00 3.250545e-01 -8.149144e-02 -9.819798e-01 2.160150e-01 -2.457288e-01 -5.450627e-01
<VARIANCE> 39
 7.496614e+00 1.068869e+01 1.149674e+01 6.823221e+00 1.886301e+01 5.947180e+00 2.831727e+01 1.677720e+01 2.868513e+01 1.611110e+01 2.343098e+01 1.440382e+01 1.897652e+00 1.231748e+00 4.599099e+00 1.149482e+00 2.533180e+00 1.774968e+00 2.627097e+00 3.409285e+00 1.295357e+00 8.712025e-01 4.010842e+00 2.307618e+00 3.598417e+00 1.517235e+00 1.441935e-01 3.094446e-01 1.772544e-01 2.921374e-01 7.098300e-01 3.647571e-01 3.390116e-01 2.033138e-01 6.796218e-01 4.393952e-01 7.604651e-01 4.003599e-01 8.618322e-02
<GCONST> 9.857237e+01
<MIXTURE> 11 6.306188e-02
<MEAN> 39
 7.922238e-01 1.810371e+00 5.062441e+00 -7.185780e+00 -1.169922e+01 -4.651956e+00 2.296417e+00 8.022644e-01 6.180770e+00 8.114559e+00 -7.384762e+00 -4.285487e+00 1.204401e+00 -9.090208e-01 -1.724064e-01 -1.636670e+00 -4.782643e+00 -1.531054e+00 1.362490e+00 1.494541e+00 1.753746e+00 6.083627e-01 7.679276e-01 -2.257887e+00 -2.410606e+00 3.499536e+00 3.448855e-01 7.801654e-01 -1.830336e-01 2.002766e-01 8.090897e-01 8.819722e-02 -6.513825e-01 -2.240526e-01 -7.374268e-01 -1.102616e+00 6.484858e-01 3.911702e-01 -6.364514e-01
<VARIANCE> 39
 3.366986e+00 1.534858e+01 1.291381e+01 3.442707e+01 1.579601e+01 2.494044e+01 3.201641e+01 2.214971e+01 1.431582e+01 1.195450e+01 1.435026e+01 1.789453e+01 6.642320e+00 1.844535e+00 1.973910e+00 1.064507e+00 1.256940e+00 1.556056e+00 2.282357e+00 2.958992e+00 1.699438e+00 2.356547e+00 2.442473e+00 2.914439e+00 1.447366e+00 2.411243e+00 1.023858e-01 3.246689e-01 4.845820e-01 7.744759e-01 4.637070e-01 4.459292e-01 3.162178e-01 4.409184e-01 5.150716e-01 5.722305e-01 4.450526e-01 4.430692e-01 2.895072e-01
<GCONST> 1.033645e+02
<MIXTURE> 12 9.608041e-02
<MEAN> 39
 1.171248e+00 7.100187e+00 5.580619e+00 -6.029659e+00 -7.806942e+00 -1.565342e+00 -3.377996e-01 -5.270782e-01 3.412633e+00 -2.718083e+00 -1.751258e+00 -2.876549e+00 -1.457531e+00 -6.343892e-01 -2.117335e-01 2.416823e-01 1.064338e+00 1.180381e+00 3.846395e-01 6.608505e-01 -9.597992e-01 4.771928e-01 -5.560607e-01 1.446238e+00 5.228131e-01 -2.289218e-01 -2.824427e-01 -1.080606e+00 -4.058727e-01 -6.013769e-01 2.415759e-01 3.807472e-01 3.926245e-01 8.751053e-02 -3.866282e-01 4.641609e-01 -7.265756e-01 -1.114908e-01 1.073491e+00
<VARIANCE> 39
 9.374828e+00 1.366378e+01 1.138237e+01 1.723254e+01 2.181358e+01 2.046989e+01 2.179087e+01 1.991768e+01 2.644417e+01 2.427230e+01 2.538852e+01 2.560878e+01 1.042478e+01 6.505836e-01 2.252336e+00 1.479112e+00 1.969995e+00 1.492967e+00 1.444629e+00 3.193571e+00 2.820267e+00 3.709056e+00 2.438044e+00 2.229993e+00 1.744549e+00 1.565734e+00 2.789702e-01 2.849833e-01 2.939150e-01 6.305066e-01 7.298468e-01 4.476638e-01 4.597700e-01 3.666037e-01 5.075369e-01 6.304292e-01 6.380893e-01 6.083001e-01 2.955159e-01
<GCONST> 1.072745e+02
<MIXTURE> 13 1.258610e-01
<MEAN> 39
 -6.617708e-02 2.349406e+00 9.258126e-01 -1.343388e+01 -1.212526e+01 1.311711e+00 2.379582e+00 1.145845e+00 1.420124e+00 1.612011e+00 -9.974614e+00 -7.241384e+00 6.959462e+00 -6.180442e-02 2.761776e-01 4.749953e-01 1.341280e+00 4.354872e-01 -7.480033e-01 4.259065e-01 -6.569552e-01 8.450804e-02 -1.584005e+00 1.988919e+00 1.283181e-01 -7.649855e-01 -2.232065e-01 -5.026928e-01 4.444954e-01 6.892462e-01 6.753693e-01 -8.313526e-02 2.579847e-01 -4.477209e-01 2.741834e-01 5.933619e-02 5.723720e-01 5.523061e-01 -2.635336e-01
<VARIANCE> 39
 4.788047e+00 8.996389e+00 1.273355e+01 1.800791e+01 1.570801e+01 2.204869e+01 2.234875e+01 1.666575e+01 1.690687e+01 2.187542e+01 2.451096e+01 1.831367e+01 8.379627e+00 8.607221e-01 1.793180e+00 1.529094e+00 4.369023e+00 3.392566e+00 2.008387e+00 2.066560e+00 2.994576e+00 3.472025e+00 3.253142e+00 1.677899e+00 2.754758e+00 1.075161e+00 1.722522e-01 2.238357e-01 2.744144e-01 5.599959e-01 2.128783e-01 5.036150e-01 3.256958e-01 5.258790e-01 3.857074e-01 2.871967e-01 6.076928e-01 2.896224e-01 2.167785e-01
<GCONST> 1.022985e+02
<MIXTURE> 14 2.225183e-02
<MEAN> 39
 -4.149102e+00 3.971045e+00 8.595411e+00 -4.076458e-01 -1.521480e+00 2.935981e+00 1.354210e+00 -3.508162e+00 4.280071e+00 5.470807e+00 1.762133e+00 4.204804e+00 -4.712494e+00 -1.325488e+00 -2.562212e+00 3.349482e-01 -3.386263e+00 -1.222601e+00 1.535742e+00 2.583249e+00 2.065681e-01 8.232872e-01 -3.110194e-01 -3.018684e+00 -9.180399e-01 3.411658e+00 7.365314e-01 2.996798e-01 -7.609916e-01 -9.114461e-01 -4.551173e-01 -6.296018e-01 -3.557591e-01 4.317200e-01 -9.187118e-02 -3.615468e-01 -7.129363e-01 -7.949200e-01 4.840776e-01
<VARIANCE> 39
 7.404325e+00 1.417942e+01 2.677425e+01 3.506158e+01 1.235203e+01 1.725272e+01 4.080856e+01 1.687732e+01 1.705790e+01 3.925328e+01 2.627938e+01 1.733098e+01 2.617066e+01 3.229452e+00 4.222659e+00 1.615861e+00 5.669200e+00 4.942029e-01 1.958971e+00 3.998138e+00 2.593392e+00 2.862803e+00 2.945378e+00 2.496729e+00 2.808703e+00 1.945362e+00 3.105975e-01 3.600805e-01 7.915412e-01 5.641563e-01 2.518427e-01 6.395679e-01 4.256051e-01 5.805071e-01 1.018878e-01 8.951436e-01 4.161288e-01 4.369092e-01 1.521139e-01
<GCONST> 1.106406e+02
<MIXTURE> 15 1.488908e-02
<MEAN> 39
 -7.519297e+00 -4.195744e+00 8.408125e+00 -2.058357e+00 -7.179703e+00 -2.995779e-01 5.582858e+00 -4.271334e+00 6.782144e+00 3.323147e+00 -3.722604e+00 -6.932820e+00 6.772580e+00 2.449832e-01 -7.312247e-01 -1.531898e+00 -5.767932e+00 -2.184630e+00 6.125857e-01 1.326281e+00 2.481894e+00 5.065981e-01 -3.420346e-01 -4.065313e+00 -2.712633e+00 3.597282e+00 1.238523e+00 1.501472e+00 -1.120741e+00 -6.433316e-01 3.193608e-01 -3.159353e-01 -1.220487e+00 6.363875e-01 -1.132827e+00 -3.505306e-01 2.202699e-01 5.728143e-01 -1.034281e+00
<VARIANCE> 39
 2.669888e+00 1.408199e+01 1.767615e+00 2.245934e+01 1.138778e+01 8.724319e+00 1.226614e+01 3.080323e+00 1.333984e+01 1.273989e+01 1.265744e+01 7.403008e+00 1.276419e+00 1.172085e+00 2.874112e+00 7.111297e-01 1.243674e+00 3.558243e+00 1.375948e+00 1.158768e+00 1.149134e+00 1.184057e+00 2.924324e+00 1.940742e+00 2.498616e+00 2.497610e+00 9.075134e-02 3.880386e-01 2.992450e-01 1.170085e+00 2.378865e-01 1.462756e-01 1.944964e-01 1.511129e-01 5.025198e-01 2.675761e-01 1.873662e-01 3.522795e-01 1.145323e-01
<GCONST> 8.566594e+01
<MIXTURE> 16 9.298386e-03
<MEAN> 39
 -8.143945e+00 7.758480e-01 7.676896e+00 9.954925e-01 -1.943627e+00 -2.270284e+00 4.956172e-02 2.772881e+00 7.149553e-01 3.824470e+00 -7.750825e+00 -5.470170e+00 4.073642e+00 -4.728632e-01 -7.600380e-01 -1.226365e+00 -6.126234e+00 -4.171774e-02 -1.745604e+00 7.118275e-01 1.886215e+00 4.200009e-01 -1.363290e-01 -4.467676e+00 -6.105333e-01 4.224376e+00 1.353277e+00 7.119897e-01 -1.067920e+00 -1.052830e+00 -7.684599e-01 8.883633e-02 1.452228e-01 -3.350238e-01 -2.585890e-01 -6.466001e-01 4.937319e-02 4.525590e-01 -4.733803e-01
<VARIANCE> 39
 2.593628e+01 3.728571e+01 5.569103e+00 1.133922e+01 4.269938e+01 1.043858e+02 4.395014e+00 3.667947e+01 5.054484e+00 3.948636e+01 2.861463e+01 1.639265e+01 4.644894e+00 1.077972e+00 5.970950e-02 4.538118e-01 1.367587e+00 1.809739e+00 2.948947e+00 3.581165e+00 2.821207e+00 1.480166e+00 6.229968e-01 1.166530e+00 1.202655e+00 1.812699e+00 5.766462e-01 5.031090e-01 8.605082e-02 7.251681e-01 3.931679e-01 1.440418e+00 1.714172e-01 1.140067e+00 2.851039e-01 1.132303e+00 3.751586e-01 6.472585e-01 2.323146e-01
<GCONST> 1.005657e+02
<STATE> 5
<NUMMIXES> 16
<MIXTURE> 1 1.640857e-01
<MEAN> 39
 -3.170590e+00 -5.628603e+00 -4.663574e+00 -3.194461e+00 -1.829894e+00 7.102799e+00 1.234623e+00 -1.913712e+00 -9.998273e+00 -2.435036e+00 2.361367e+00 -3.227948e+00 1.177096e+01 2.568294e-01 -3.043605e-01 -2.384764e-01 6.440191e-01 4.120288e-01 -7.030038e-01 -2.259869e-01 4.070267e-01 -3.180391e-01 4.130832e-01 3.755386e-01 1.191768e-01 -4.321383e-01 8.412547e-02 7.509142e-02 1.503486e-01 -1.926709e-01 2.495515e-02 -2.146027e-01 1.942640e-01 2.804312e-02 2.496411e-01 6.234598e-02 -2.488195e-01 7.087438e-03 -2.028104e-01
<VARIANCE> 39
 3.599645e+00 2.762929e+00 4.376257e+00 6.454933e+00 9.629400e+00 2.039526e+01 1.086370e+01 7.829126e+00 7.176903e+00 1.553851e+01 7.939970e+00 9.053547e+00 2.652711e+00 1.924872e-01 2.640459e-01 4.623276e-01 6.572053e-01 6.985542e-01 7.090259e-01 7.817773e-01 3.374122e-01 9.589141e-01 6.372266e-01 8.088585e-01 5.306487e-01 1.968547e-01 2.871643e-02 3.447625e-02 7.192123e-02 1.613319e-01 1.594326e-01 2.015849e-01 1.281378e-01 7.460964e-02 1.370644e-01 1.441956e-01 1.744329e-01 9.926456e-02 2.463456e-02
<GCONST> 5.668838e+01
<MIXTURE> 2 1.293381e-01
<MEAN> 39
 2.300049e+00 -5.923388e+00 -8.944201e+00 -1.855187e+00 1.399711e+00 -4.702313e-01 2.471835e+00 2.394023e+00 -1.146793e+01 -2.272629e+00 3.116222e+00 -1.251534e+00 7.829431e+00 -9.066355e-03 -3.332549e-01 -2.289641e-02 1.250307e+00 -4.375819e-02 -5.718024e-01 -2.303443e-02 1.712990e-01 6.444390e-02 2.404459e-01 2.985825e-01 2.462596e-01 -2.636359e-01 -7.738438e-02 6.346489e-03 4.133475e-01 -2.049512e-01 -9.296148e-02 1.873325e-01 -1.804658e-01 -1.829721e-01 3.763176e-01 1.722987e-01 -4.703740e-01 -2.828423e-02 -7.317890e-02
<VARIANCE> 39
 1.250528e+00 6.455548e+00 4.100230e+00 1.125569e+01 1.486002e+01 1.080050e+01 1.386734e+01 2.255750e+01 1.081406e+01 1.426733e+01 9.076129e+00 6.747705e+00 1.072409e+00 1.431220e-01 3.579926e-01 8.085839e-01 8.720815e-01 1.159395e+00 9.881070e-01 1.295560e+00 1.545025e+00 1.390721e+00 1.059384e+00 1.812385e+00 7.082056e-01 1.003645e-01 1.970346e-02 9.100648e-02 1.572565e-01 2.013564e-01 3.573701e-01 2.521396e-01 2.632960e-01 3.150450e-01 3.476594e-01 1.420120e-01 1.845291e-01 1.294423e-01 2.220259e-02
<GCONST> 6.826952e+01
<MIXTURE> 3 1.346395e-01
<MEAN> 39
 9.943194e-01 -7.713788e+00 -3.876275e+00 -6.408523e+00 3.324071e-02 4.262304e+00 2.390586e+00 -2.612533e+00 -8.775346e+00 9.053319e-01 -3.365163e+00 -2.004021e-01 9.907276e+00 1.587508e-01 -4.477773e-01 -5.774630e-01 1.705115e+00 1.771645e-01 -5.528855e-01 -1.903141e-01 -3.827941e-01 -6.173418e-01 -1.437229e-02 1.207390e+00 1.593338e-01 -2.377442e-01 -6.096420e-02 3.403300e-01 1.436907e-01 -1.158048e-01 -2.525155e-01 -2.975975e-01 1.609860e-01 3.800257e-02 3.188474e-01 -2.250447e-01 -4.347796e-02 -2.727493e-01 -1.864583e-01
<VARIANCE> 39
 3.447687e+00 5.543278e+00 1.004957e+01 1.223801e+01 1.275495e+01 1.135175e+01 8.142655e+00 1.568596e+01 1.539770e+01 1.788577e+01 1.153490e+01 2.375879e+01 3.335569e+00 1.433761e-01 6.860951e-01 8.642903e-01 1.120219e+00 1.238004e+00 1.322461e+00 9.123467e-01 1.633692e+00 1.830869e+00 1.483514e+00 2.163006e+00 2.049363e+00 1.356209e-01 2.276504e-02 7.305747e-02 1.113316e-01 1.794370e-01 2.418682e-01 2.044891e-01 1.832622e-01 4.188110e-01 1.825870e-01 2.436105e-01 3.323274e-01 2.885919e-01 1.636660e-02
<GCONST> 7.527644e+01
<MIXTURE> 4 8.932455e-03
<MEAN> 39
 -7.936256e+00 -1.302528e-01 1.310997e+01 -8.510267e+00 -5.518057e+00 -5.943661e-01 -4.420398e+00 5.967837e+00 3.297489e+00 5.116139e+00 8.433446e-02 -5.363928e+00 4.851815e+00 -3.963703e-01 -1.475832e+00 -6.360698e-01 3.375966e-01 4.867218e-01 -2.248113e-01 2.207599e+00 5.270246e-01 -1.049208e+00 1.750054e+00 5.822486e-01 6.266019e-01 5.823656e-01 1.357178e+00 -2.218738e-01 -1.421861e+00 -1.403655e+00 -5.236863e-01 5.949543e-01 1.044513e+00 -4.621049e-01 -6.696623e-01 -2.311397e-01 -1.059423e+00 -3.097509e-01 4.124837e-01
<VARIANCE> 39
 5.391690e+00 5.097866e+00 8.756429e+00 1.969058e+01 2.106844e+01 1.930201e+01 9.223497e+00 2.031998e+01 1.088582e+00 2.116942e+01 1.033134e+01 4.890245e+00 6.651781e+00 1.097038e+00 2.214874e-01 1.020121e+00 1.194323e+00 3.903294e-01 4.125296e-01 9.533552e-01 5.104702e-01 2.120400e+00 6.703075e-01 3.652554e+00 1.025358e+00 1.655502e-01 7.591941e-02 1.256111e-01 3.540828e-02 1.226422e-01 1.524600e-01 9.361214e-02 2.645332e-01 1.785520e-01 1.468414e-01 3.027744e-01 9.291664e-02 1.780489e-01 6.977634e-02
<GCONST> 6.917535e+01
<MIXTURE> 5 4.273858e-02
<MEAN> 39
 -3.004211e+00 -3.605150e+00 2.093041e+00 -1.685094e+01 -2.889711e+00 4.822850e-01 1.027478e+01 -5.235117e+00 -2.369261e+00 -1.832580e+00 -5.919871e+00 -7.432593e+00 1.138519e+01 -5.574538e-01 -6.070890e-01 -1.759579e+00 1.570543e+00 5.698634e-01 1.810708e+00 -1.013058e-01 -9.656092e-01 -1.387525e+00 -1.189899e+00 1.642550e+00 -2.195610e-01 1.256432e+00 1.368126e-01 3.119426e-01 -3.178447e-01 9.924986e-01 -3.977897e-01 1.755246e-01 -7.740224e-01 5.093203e-01 -9.957238e-02 6.046664e-02 4.104497e-01 2.776453e-01 -3.426639e-01
<VARIANCE> 39
 2.686874e+00 9.155316e+00 6.441762e+00 1.245039e+01 6.545014e+00 1.262551e+01 1.194012e+01 1.510118e+01 1.091549e+01 1.917950e+01 1.480140e+01 1.225504e+01 4.745794e+00 2.411120e-01 8.346372e-01 3.449949e-01 1.879911e+00 8.074827e-01 1.975235e+00 9.943314e-01 2.144259e+00 1.484847e+00 3.538395e+00 3.692004e+00 2.211067e+00 7.587620e-01 2.428213e-02 1.231307e-01 1.661297e-01 2.042877e-01 7.545945e-02 3.422398e-01 1.638308e-01 3.631395e-01 2.234625e-01 2.406747e-01 3.840180e-01 4.409238e-01 8.227773e-02
<GCONST> 8.077532e+01
<MIXTURE> 6 9.002090e-02
<MEAN> 39
 -4.812730e+00 -2.592923e+00 -3.407545e+00 -5.854766e+00 -5.457942e+00 8.079481e+00 7.419586e+00 -4.994675e+00 -2.442702e+00 -3.563777e+00 -4.911134e+00 -3.599276e+00 1.246887e+01 -2.970420e-01 -3.900374e-01 -8.373267e-01 1.551741e+00 1.649848e+00 2.867402e-01 -3.657034e-01 -7.199358e-01 -1.959056e+00 -4.859717e-01 1.729426e+00 1.797975e-01 3.573884e-01 2.998904e-01 7.878937e-02 4.032242e-01 1.518525e-01 -9.631018e-02 -6.381113e-01 -5.549212e-01 1.460928e-01 3.225321e-01 9.276906e-02 3.062703e-01 -8.340292e-02 -4.830301e-01
<VARIANCE> 39
 1.035416e+00 1.236238e+00 7.828677e+00 2.763558e+01 1.326151e+01 1.048336e+01 1.431586e+01 5.641510e+00 2.345252e+01 8.599326e+00 3.442361e+01 1.249688e+01 9.317224e-01 3.216811e-01 2.716233e-01 6.668864e-01 1.188928e+00 7.875040e-01 1.811358e+00 1.755742e+00 1.493529e+00 1.524331e+00 9.557148e-01 1.774304e+00 8.756578e-01 3.491007e-01 5.937617e-02 9.103459e-02 1.433105e-01 3.582618e-01 1.423440e-01 2.525870e-01 2.492656e-01 2.668461e-01 2.530555e-01 1.846900e-01 4.993601e-01 2.211455e-01 1.693247e-01
<GCONST> 7.507347e+01
<MIXTURE> 7 8.932430e-03
<MEAN> 39
 -3.426667e+00 7.395050e+00 -4.929358e+00 -8.453816e+00 -5.990919e+00 -1.687744e+00 7.012352e+00 -5.820457e+00 1.333355e+01 -2.089694e+00 -4.377315e+00 -3.845891e+00 5.125519e+00 -7.807797e-02 -1.914834e+00 -8.838322e-01 -6.298380e-01 1.505432e+00 1.789661e+00 2.214364e-01 -8.454337e-01 2.702091e-01 -7.136536e-01 5.320788e-01 2.425299e+00 1.072031e+00 5.796720e-01 -1.304304e+00 4.957950e-01 -9.118849e-01 6.011677e-01 4.798332e-01 -5.289487e-01 1.121705e+00 -1.975120e+00 -7.485900e-02 -4.619684e-01 4.596213e-01 5.926746e-01
<VARIANCE> 39
 2.826857e+00 1.501347e+00 2.352830e+01 1.015949e+01 6.492612e+00 1.498446e+01 8.934873e+00 1.200198e+01 5.152485e+00 6.423186e+00 2.975095e+01 1.686739e+01 2.698325e+00 1.595044e-01 2.382292e-01 1.785938e-01 2.031459e+00 3.889630e-01 1.796086e-01 3.366767e-01 2.694069e+00 1.329703e+00 6.423671e-01 2.686971e+00 2.324929e+00 4.136912e-01 2.457818e-02 1.322101e-01 2.044923e-01 6.634386e-01 4.765636e-01 2.721731e-01 1.383270e-01 3.467639e-01 1.931599e-01 2.107880e-01 4.331977e-02 6.881106e-01 3.006433e-02
<GCONST> 6.928621e+01
<MIXTURE> 8 8.340696e-02
<MEAN> 39
 -1.237411e+00 -9.858636e-01 5.467472e-01 -1.255044e+01 -8.741544e+00 3.209241e+00 4.391066e+00 1.410049e+00 1.236903e-01 2.207841e+00 -7.049563e+00 -6.252014e+00 8.118870e+00 1.321130e-01 -1.701460e+00 -2.324415e+00 -8.849910e-01 1.432202e+00 1.314135e+00 1.141670e+00 2.051796e-03 -2.743548e+00 1.148798e-01 -9.640136e-01 -1.561376e-01 2.278055e+00 1.560511e-01 9.295873e-02 -1.146221e-01 3.685552e-01 2.870762e-01 3.448823e-02 -4.093315e-01 -2.070780e-01 -3.717288e-01 -3.572362e-01 3.315626e-01 5.743743e-02 -1.274092e-01
<VARIANCE> 39
 5.579446e+00 4.809173e+00 9.633088e+00 1.844178e+01 1.609533e+01 1.212365e+01 1.248945e+01 1.450693e+01 1.834322e+01 1.279528e+01 1.587165e+01 1.653400e+01 5.630689e+00 2.473177e+00 8.569960e-01 2.100416e+00 2.120909e+00 2.655432e+00 1.373766e+00 1.949750e+00 4.727662e+00 3.179657e+00 1.883978e+00 1.765357e+00 2.329922e+00 1.444940e+00 1.206800e-01 1.197007e-01 1.642571e-01 3.645612e-01 2.342350e-01 3.855316e-01 3.594082e-01 1.883043e-01 3.194955e-01 3.989505e-01 4.206292e-01 3.120940e-01 2.095076e-01
<GCONST> 9.490556e+01
<MIXTURE> 9 5.359862e-03
<MEAN> 39
 4.617360e+00 4.506693e+00 8.682196e+00 -5.453452e+00 -1.213651e+01 -6.610402e-01 -4.408717e+00 3.180504e-01 3.771863e+00 -3.966512e+00 -2.070361e+00 2.235440e+00 -3.737156e+00 -4.339987e-01 -5.273675e-01 -1.757872e+00 8.703744e-01 2.247353e+00 -1.074735e+00 2.960529e+00 -1.112831e+00 -3.773446e-01 3.592753e-01 3.999087e-01 1.099737e+00 8.329633e-01 -7.824422e-01 -6.251907e-01 -1.268796e+00 -1.011420e+00 5.396413e-01 1.451066e+00 -6.695931e-02 -7.277483e-02 -8.066031e-02 4.885128e-01 -1.072190e+00 -4.240525e-01 1.775979e+00
<VARIANCE> 39
 9.901682e-01 7.261529e+00 7.331794e+00 2.266694e+01 3.454216e+00 7.338634e+00 5.513869e+00 1.419889e+00 1.702408e+00 2.414978e+01 4.023288e+00 9.744813e-01 6.569951e-01 3.232985e-02 2.329922e-02 4.781398e-02 3.980730e-01 7.361950e-02 1.527018e-01 1.841027e-01 6.437765e-01 3.863759e-01 2.571133e-01 6.610829e-02 2.333761e+00 4.835792e-02 1.012105e-01 8.895801e-02 4.195529e-02 1.296905e-02 2.125091e-01 7.117886e-02 7.097008e-01 1.662531e-02 7.359740e-02 5.312273e-01 2.133686e-02 9.265646e-02 6.343678e-02
<GCONST> 3.065225e+01
<MIXTURE> 10 1.039143e-01
<MEAN> 39
 -2.710048e+00 -4.801526e+00 -2.653538e+00 -8.998585e+00 -3.660419e+00 6.273824e+00 4.017698e+00 -2.136117e+00 -7.014848e+00 -4.648692e+00 -1.169561e+00 -7.090992e+00 1.185610e+01 1.935171e-01 -6.167648e-01 -1.019978e+00 1.963391e+00 7.449669e-01 5.316448e-01 -1.148721e+00 3.027879e-01 -1.588434e+00 1.748082e-01 1.092861e+00 7.539186e-01 9.458609e-02 2.545079e-01 1.730937e-01 2.213760e-01 1.502520e-01 -1.027549e-01 -4.746274e-01 -4.485257e-02 4.633825e-02 4.912870e-01 3.104686e-01 -1.092824e-01 3.403170e-01 -4.598740e-01
<VARIANCE> 39
 6.714079e+00 7.645671e+00 6.918809e+00 7.975074e+00 5.881377e+00 1.669868e+01 1.219136e+01 2.145791e+01 1.164527e+01 1.309098e+01 1.294219e+01 1.151478e+01 2.836018e+00 3.949029e-01 3.462238e-01 5.559969e-01 9.858952e-01 1.553146e+00 1.888616e+00 1.884325e+00 1.944900e+00 1.566304e+00 3.025525e+00 1.531438e+00 1.389770e+00 3.185545e-01 6.025299e-02 1.262766e-01 1.023443e-01 2.579968e-01 2.461258e-01 2.542397e-01 2.078538e-01 6.420073e-01 2.523646e-01 3.144986e-01 2.604783e-01 1.830793e-01 9.622546e-02
<GCONST> 8.058857e+01
<MIXTURE> 11 8.932484e-03
<MEAN> 39
 1.367426e+00 4.390176e+00 3.850033e+00 -1.056130e+01 -1.479340e+01 2.828232e+00 -4.672732e+00 7.903870e+00 2.478588e+00 -1.463114e+00 -7.940516e+00 -1.215587e+01 3.228348e+00 -8.735791e-01 -3.901580e-01 9.639319e-01 3.044657e+00 1.622923e+00 -1.414868e+00 -2.876768e-01 4.652865e-02 -3.377882e-01 -1.636999e-01 2.896473e+00 2.236254e+00 -1.119495e+00 -6.014329e-01 -6.338580e-01 -3.768492e-01 1.838840e-01 4.684812e-01 1.994199e-01 1.068555e+00 -5.328731e-01 -9.591952e-02 8.964149e-01 3.486894e-01 5.115202e-01 4.864497e-01
<VARIANCE> 39
 6.544521e-01 7.724856e+00 1.365486e+01 3.666018e+01 2.392462e+01 1.967771e+00 2.017630e+01 1.135590e+00 1.078515e+01 2.543904e+01 3.475985e+00 3.923497e+00 5.963439e+00 2.311600e+00 1.702791e-01 9.112451e-01 7.398801e-02 3.320272e-01 1.767515e+00 2.815854e+00 1.794015e+00 1.307360e+00 1.033755e+00 7.612088e-01 2.940376e-01 4.460670e-01 1.165101e-01 5.480515e-02 1.646308e-01 1.050826e+00 2.914081e-01 3.523219e-02 2.343823e-01 2.050223e-01 5.813184e-02 2.337598e-01 3.053600e-01 2.696701e-01 2.345941e-01
<GCONST> 6.929683e+01
<MIXTURE> 12 5.359673e-03
<MEAN> 39
 -1.010889e+00 1.046394e+01 -3.964725e+00 -9.642864e+00 -6.641836e+00 -5.517300e+00 9.156290e+00 -4.649833e+00 5.430820e+00 2.072391e-02 -7.878347e+00 -9.671132e+00 3.313830e+00 4.930660e-01 -2.172831e-01 -2.198581e+00 5.224380e-01 -4.867229e-01 6.118824e-01 1.223885e+00 -1.534060e+00 1.363305e+00 -5.963902e-01 6.967942e-01 -1.840560e-01 2.701172e-01 4.275573e-01 -1.258774e+00 3.284752e-01 -3.497955e-01 5.579126e-01 7.128435e-01 -7.753913e-01 1.014791e+00 -1.017914e+00 -1.584211e-01 -8.269993e-02 1.078689e+00 3.155962e-01
<VARIANCE> 39
 7.995653e-01 1.511880e+01 6.531041e+00 1.180960e+01 2.699026e+00 3.153895e+00 2.958211e+01 2.182742e+01 8.842600e+00 1.478407e+01 1.219183e+01 5.537029e+00 6.903318e+00 2.957031e+00 8.910568e-01 8.109064e-01 3.597057e+00 3.092184e+00 3.751654e-01 5.752822e-01 6.014201e+00 2.189641e+00 1.633951e+00 6.246233e+00 8.647831e-01 6.454080e-01 7.213078e-02 3.970236e-01 5.491263e-01 3.436928e-01 5.669541e-02 4.863409e-03 8.315158e-01 1.279122e+00 6.718169e-01 3.652140e-01 4.813784e-02 1.137896e-01 7.223479e-02
<GCONST> 8.150196e+01
<MIXTURE> 13 7.807241e-02
<MEAN> 39
 1.798810e+00 -2.860555e+00 -3.432088e+00 -1.349779e+01 -1.219594e+00 3.807884e+00 3.779059e+00 -1.569771e+00 -3.990269e+00 -8.249317e-01 -8.092317e+00 8.295036e-02 8.508688e+00 5.598094e-01 -2.056453e+00 -8.265073e-01 1.285585e+00 1.621313e+00 8.834149e-01 -8.248568e-01 -5.684296e-01 -2.191510e+00 -7.252035e-01 1.206691e+00 9.906324e-01 7.330628e-01 -2.479655e-01 2.867948e-01 2.369493e-01 8.601037e-01 -4.193192e-01 -3.369618e-01 -3.163184e-01 1.512967e-01 1.251739e-01 2.342966e-02 7.869478e-01 -3.989221e-01 -3.361253e-01
<VARIANCE> 39
 1.558894e+00 5.089481e+00 5.912573e+00 7.398376e+00 1.483066e+01 9.185673e+00 1.354368e+01 2.005501e+01 1.663323e+01 7.671320e+00 1.267257e+01 3.152261e+01 1.775190e+00 3.445613e-01 1.243114e+00 1.382927e+00 2.395120e+00 1.202100e+00 1.323172e+00 1.059189e+00 2.676181e+00 2.112846e+00 1.918652e+00 1.973083e+00 3.083787e+00 3.184264e-01 1.200927e-01 1.843251e-01 9.159300e-02 2.563982e-01 3.157119e-01 1.395825e-01 2.739022e-01 3.788981e-01 4.358616e-01 3.226125e-01 4.653829e-01 4.013626e-01 6.198300e-02
<GCONST> 8.400533e+01
<MIXTURE> 14 1.058982e-01
<MEAN> 39
 -3.142762e+00 -5.265210e+00 -4.479775e+00 1.269515e+00 -1.098173e+00 1.536968e+00 -6.370593e-01 -5.096732e+00 -4.300332e+00 -4.484490e+00 5.833813e+00 -5.138591e+00 1.054802e+01 3.798908e-01 -4.369064e-03 2.472472e-01 5.381038e-01 -4.771887e-02 -6.330425e-01 -8.649666e-01 6.080555e-01 8.535979e-02 3.892291e-02 4.528105e-01 -4.076281e-01 -7.345787e-01 1.291050e-01 1.750810e-01 1.567939e-01 -1.817265e-02 -1.810379e-01 2.946393e-01 1.796563e-01 1.736405e-01 -3.891584e-02 4.899123e-02 -2.866053e-01 1.146927e-01 -2.825949e-01
<VARIANCE> 39
 3.356223e+00 3.219156e+00 2.859793e+00 7.368753e+00 1.059677e+01 4.335814e+00 9.468119e+00 1.231849e+01 6.225040e+00 1.441395e+01 1.443539e+01 7.706294e+00 2.260772e+00 2.982749e-01 3.826917e-01 5.128752e-01 4.875485e-01 1.814908e+00 8.897074e-01 1.517747e+00 7.829596e-01 6.561971e-01 8.738803e-01 1.882714e+00 1.005541e+00 2.653025e-01 7.625008e-02 4.067549e-02 7.850339e-02 1.784091e-01 1.434480e-01 9.888679e-02 8.789301e-02 1.446223e-01 1.650356e-01 3.529816e-01 2.065830e-01 2.341324e-01 7.959016e-02
<GCONST> 6.449875e+01
<MIXTURE> 15 7.146078e-03
<MEAN> 39
 -1.234450e-01 2.938304e+00 5.635244e+00 -8.318639e+00 -9.528430e+00 -5.030206e+00 4.180910e+00 -1.354070e+00 4.754065e+00 -1.306549e+01 3.140733e+00 -2.102984e+00 1.232176e+00 -6.997594e-01 -2.289240e+00 2.691073e-01 -5.550448e-01 1.619694e+00 3.715308e-01 9.121823e-01 1.406972e-01 -1.829840e+00 -5.066363e-01 1.295600e+00 7.443837e-02 1.897072e+00 -2.560466e-01 -7.771634e-01 -6.896600e-01 -1.464534e-01 1.129888e-01 1.619047e+00 -1.959757e-01 4.253029e-02 -2.032984e-01 1.610589e+00 -9.426916e-01 1.170102e-01 1.027245e+00
<VARIANCE> 39
 2.752342e+00 2.228337e+01 5.146440e+00 1.000099e+01 5.472248e+00 2.268145e+01 1.328680e+01 8.659122e+00 1.436948e+01 9.319263e+00 1.578769e+01 1.067637e+01 8.347666e+00 1.644097e-01 2.182403e-01 2.705688e+00 2.264961e+00 1.345128e-01 2.057820e+00 1.222472e+00 9.979395e-01 9.610357e-01 1.285260e+00 9.565684e-01 1.267740e+00 1.039690e+00 1.333013e-01 1.727874e-01 2.546611e-01 2.321173e-01 2.304357e-02 2.240385e-01 9.769922e-02 1.209257e-01 4.745050e-04 9.791958e-02 9.182371e-02 7.152200e-01 3.365605e-01
<GCONST> 6.919746e+01
<MIXTURE> 16 2.322235e-02
<MEAN> 39
 4.494514e-01 -7.915504e-02 5.897686e+00 -1.817587e+01 -5.400265e+00 -7.391402e-01 2.700291e+00 5.229396e+00 -1.759608e+00 3.177496e+00 -8.531503e+00 -6.168504e+00 5.228067e+00 -2.249265e-01 -1.918755e+00 -7.015803e-01 -3.468154e-01 1.526184e+00 9.033584e-01 1.118439e+00 -4.959599e-01 -1.614209e+00 -5.651427e-01 -3.941925e-01 8.025378e-01 1.408131e+00 -2.191527e-01 -5.373710e-02 -8.023492e-01 5.744691e-01 -1.789105e-01 5.516792e-01 -1.175998e-01 -1.133417e+00 2.367303e-01 -5.811624e-01 2.643201e-02 2.827121e-01 4.262427e-01
<VARIANCE> 39
 4.575290e+00 1.592839e+01 5.124095e+00 7.119391e+00 1.005506e+01 2.485325e+01 3.681741e+01 1.084218e+01 7.712190e+00 3.975520e+00 1.151320e+01 9.634731e+00 9.649639e+00 2.587575e-01 8.555430e-01 1.514625e+00 1.143716e+00 6.080539e-01 1.060128e+00 6.074991e-01 2.407168e+00 3.755397e-01 9.074809e-01 5.699724e-01 6.409376e-01 6.929066e-01 1.760740e-02 3.617840e-01 4.645347e-02 2.447280e-01 1.381818e-01 3.211551e-01 2.162141e-01 1.337838e-01 1.145756e-01 7.057355e-02 3.856820e-01 2.479170e-01 1.674594e-01
<GCONST> 7.286104e+01
<STATE> 6
<NUMMIXES> 16
<MIXTURE> 1 5.499767e-02
<MEAN> 39
 -2.980455e-01 5.015252e-01 2.251479e+00 8.304142e+00 6.764080e+00 -2.564339e+00 -6.584709e-02 2.609498e-01 -1.834548e-01 -1.639150e+00 4.854150e-01 2.652423e+00 -5.129542e+00 -1.553950e-01 1.333408e+00 9.921145e-01 2.296325e-01 7.511691e-01 -5.475403e-01 -2.704694e-01 3.210790e-01 1.453588e+00 -2.553608e-01 4.520701e-02 8.870395e-01 -1.537831e+00 1.076486e-01 -2.683722e-02 -2.485365e-01 -4.960338e-01 -3.068379e-01 3.895496e-01 1.252073e-01 -7.493685e-02 -2.998291e-02 2.715520e-01 2.032054e-01 -2.936137e-01 1.504280e-01
<VARIANCE> 39
 2.803105e+00 8.911620e+00 8.807728e+00 1.221891e+01 1.201858e+01 1.393333e+01 1.395448e+01 2.046170e+01 1.609649e+01 2.404735e+01 6.814084e+00 2.219392e+01 4.717342e+00 5.121922e-01 6.880798e-01 7.555645e-01 1.428613e+00 1.134995e+00 1.695667e+00 2.012686e+00 1.851173e+00 2.636378e+00 1.732203e+00 2.287298e+00 2.734137e+00 9.991519e-01 3.398724e-02 1.529386e-01 2.469333e-01 2.109118e-01 2.213833e-01 2.981510e-01 2.555463e-01 4.246386e-01 2.113142e-01 2.150063e-01 2.071664e-01 2.537907e-01 3.519285e-02
<GCONST> 8.469513e+01
<MIXTURE> 2 1.522459e-01
<MEAN> 39
 -5.966397e-01 5.712280e+00 4.282364e+00 4.521192e+00 3.132754e+00 4.155642e+00 8.134800e-01 3.428363e+00 8.056523e+00 3.547425e+00 3.557023e+00 5.115102e+00 -1.301255e+01 -1.520696e-02 2.533341e-01 2.484362e-01 -5.417515e-02 -8.605279e-02 -6.054579e-02 -2.139317e-01 5.694361e-02 1.385296e-01 -3.394619e-01 1.385595e-01 4.613921e-01 -2.441358e-01 8.437946e-02 -1.145719e-01 -5.207339e-02 6.583887e-02 -1.882510e-02 -2.607089e-03 -2.069372e-01 -2.587643e-01 -3.417411e-01 -2.030237e-01 1.230919e-01 -2.997642e-02 1.167588e-01
<VARIANCE> 39
 4.674669e+00 5.498671e+00 6.109145e+00 1.090510e+01 1.273815e+01 1.541475e+01 1.821539e+01 2.597079e+01 2.682219e+01 2.637491e+01 1.796457e+01 2.378315e+01 4.993588e+00 1.516329e-01 2.927102e-01 5.050342e-01 8.844943e-01 1.269271e+00 1.110516e+00 2.326905e+00 2.252964e+00 2.363322e+00 1.823575e+00 1.957061e+00 2.881358e+00 1.153373e-01 1.929997e-02 4.025430e-02 6.119774e-02 1.178026e-01 1.770935e-01 1.426899e-01 2.468305e-01 3.540138e-01 3.293828e-01 2.961316e-01 1.825023e-01 3.795997e-01 8.123551e-03
<GCONST> 7.588091e+01
<MIXTURE> 3 1.470134e-01
<MEAN> 39
 9.756558e-01 -7.156303e+00 -4.435783e+00 -9.168541e-01 -4.954762e-01 3.363534e+00 1.002237e+00 2.935187e-01 -9.508462e+00 -4.329170e-01 1.315138e+00 -2.426035e+00 6.803458e+00 2.920186e-01 3.541010e-01 8.265696e-01 6.424069e-01 8.359898e-01 -9.486828e-01 -3.792921e-01 -3.166370e-01 7.234701e-01 3.751096e-01 -2.915920e-01 5.992507e-01 -1.491231e+00 -7.071008e-03 3.810862e-01 1.648294e-01 1.513864e-01 1.772322e-01 -2.657567e-01 -4.040359e-02 -3.312593e-01 3.781005e-01 -1.141937e-01 3.484282e-02 2.407812e-01 -3.908521e-01
<VARIANCE> 39
 4.347128e+00 7.145346e+00 1.051860e+01 1.764595e+01 1.247488e+01 1.283740e+01 1.627321e+01 1.707458e+01 1.350421e+01 2.111789e+01 1.859721e+01 9.153204e+00 6.054822e+00 4.822307e-01 6.542407e-01 9.826970e-01 1.608925e+00 1.476137e+00 1.684394e+00 1.948442e+00 2.179906e+00 1.624595e+00 1.658278e+00 1.270384e+00 1.448680e+00 6.703596e-01 8.122388e-02 1.241699e-01 2.033944e-01 2.910776e-01 2.394117e-01 2.291681e-01 3.822378e-01 2.166740e-01 3.339156e-01 2.273973e-01 2.265785e-01 2.295560e-01 9.329771e-02
<GCONST> 8.577031e+01
<MIXTURE> 4 3.194969e-02
<MEAN> 39
 -1.255868e+00 4.420590e+00 4.387419e+00 3.304966e+00 5.959735e+00 -2.312911e+00 -2.818662e+00 2.874786e+00 1.222816e+01 7.414356e-01 1.323942e+00 4.216374e+00 -1.011676e+01 1.717779e-01 8.362586e-01 3.908629e-01 -3.263640e-01 6.413442e-03 3.781945e-01 -4.975691e-01 -3.698788e-01 4.507288e-02 3.223180e-01 -1.229363e+00 -8.980961e-01 -1.641090e-01 2.357507e-01 4.192011e-02 6.512892e-02 1.115892e-01 -8.553457e-02 1.831861e-01 1.133942e-01 -4.444767e-01 -7.377252e-01 -2.181550e-01 -1.890692e-01 -1.940323e-01 3.986679e-02
<VARIANCE> 39
 9.718430e+00 1.228551e+01 1.249123e+01 1.003579e+01 2.219629e+01 9.461095e+00 5.400974e+01 2.417652e+01 2.447398e+01 2.036116e+01 1.359364e+01 1.357611e+01 2.855972e+00 1.402028e+00 1.125407e+00 5.034900e-01 1.431927e+00 2.057678e+00 2.981314e+00 1.943704e+00 2.965712e+00 2.930611e+00 2.497390e+00 6.251867e-01 1.049745e+00 1.298056e-01 2.257152e-01 1.739415e-01 1.686280e-01 2.347959e-01 4.414684e-01 1.898223e-01 5.277988e-01 7.317211e-01 4.166533e-01 2.203658e-01 2.157705e-01 2.138766e-01 2.101117e-02
<GCONST> 9.028931e+01
<MIXTURE> 5 2.131142e-02
<MEAN> 39
 1.687749e+00 3.908430e-02 -2.592789e+00 7.444702e+00 -9.314489e+00 1.786465e+00 -1.169759e+01 -4.777562e+00 -4.883289e+00 -8.423283e-01 1.059332e+01 -7.146522e+00 2.592201e+00 1.216643e+00 1.709927e+00 1.492015e+00 8.941540e-01 4.271644e-01 5.846010e-01 -6.467530e-01 8.212673e-01 5.097929e-01 2.122341e+00 -2.164437e-01 5.712202e-01 -3.422103e+00 -2.461379e-01 6.481062e-02 3.941518e-01 -3.646492e-01 1.023054e+00 2.456715e-01 8.381415e-01 2.624623e-02 7.463120e-01 3.873137e-01 -6.667572e-01 5.390640e-01 -4.648656e-01
<VARIANCE> 39
 5.500722e+00 4.997932e+00 3.830772e+00 7.612929e+00 5.523537e+00 1.872598e+00 9.794577e+00 5.452702e+00 9.653126e+00 1.998619e+01 9.902781e+00 4.840865e+00 1.593798e+01 1.935675e-01 2.872430e-01 1.013507e+00 7.416779e-01 3.523146e+00 6.601098e-01 2.426877e+00 9.516943e-01 1.850424e+00 2.188328e+00 1.956188e+00 6.555541e-01 1.058049e+00 1.405313e-01 1.118112e-01 1.535890e-01 1.859656e-01 2.064671e-01 1.110802e-01 2.473216e-01 1.576750e-01 3.254189e-01 3.727835e-01 1.046906e-01 4.611097e-02 1.537555e-01
<GCONST> 7.274548e+01
<MIXTURE> 6 8.903395e-02
<MEAN> 39
 4.903062e-01 -6.069982e+00 -3.016735e+00 1.754012e+00 1.815436e+00 -2.808986e+00 2.089306e+00 -3.795143e+00 -5.372309e+00 -2.704855e+00 2.871412e-01 -9.451294e-01 5.314739e+00 8.734826e-01 9.787359e-01 8.971816e-01 1.209945e+00 5.522701e-02 -3.765266e-01 -5.414411e-01 -4.824885e-01 6.012957e-01 -8.648577e-01 -1.176119e-01 5.372763e-01 -2.383889e+00 1.331968e-01 5.495096e-01 2.002295e-01 -3.722390e-02 -1.092932e-01 4.641942e-01 -2.710837e-01 1.373285e-01 5.560099e-02 -1.318002e-02 8.406588e-02 -3.691154e-02 -5.745148e-01
<VARIANCE> 39
 7.615130e+00 5.832457e+00 8.901116e+00 1.569592e+01 8.988409e+00 6.146748e+00 1.276729e+01 3.167914e+01 9.036449e+00 1.580934e+01 1.489393e+01 1.190916e+01 7.717877e+00 7.593289e-01 1.211700e+00 1.118086e+00 1.695750e+00 1.249682e+00 1.310454e+00 1.396964e+00 2.797872e+00 3.618058e+00 1.580558e+00 2.501248e+00 2.475776e+00 1.203983e+00 8.516434e-02 1.515505e-01 1.102245e-01 1.788594e-01 2.967884e-01 1.528263e-01 2.122526e-01 7.236648e-01 3.586082e-01 2.923407e-01 4.192289e-01 2.849552e-01 5.581521e-02
<GCONST> 8.826517e+01
<MIXTURE> 7 2.273882e-02
<MEAN> 39
 2.235336e+00 -4.604905e+00 4.144117e+00 3.518804e+00 -2.433269e+00 -2.489042e+00 -8.172267e+00 -1.350277e+01 -8.878729e+00 -4.630746e+00 -4.589367e+00 5.089717e-01 1.238474e+00 -1.965484e-01 2.892030e+00 6.608874e-01 1.777649e+00 -3.097234e-01 -9.167540e-01 -1.501651e+00 -1.650640e-02 1.597109e+00 5.418363e-01 2.109493e+00 9.285892e-01 -3.188726e+00 -3.472739e-01 4.127942e-01 -7.225230e-01 -3.196177e-01 4.603800e-01 8.449669e-01 1.329211e+00 1.546606e+00 9.616570e-01 7.732344e-01 1.014318e+00 2.394486e-01 -2.002730e-01
<VARIANCE> 39
 1.747286e+00 1.085892e+01 5.372073e+00 5.635354e+00 8.802515e+00 1.226220e+01 2.441709e+01 9.051177e+00 7.608792e+00 1.080134e+01 1.768674e+01 4.145778e+01 9.579125e+00 4.760395e-01 5.594293e-01 1.517055e+00 8.287527e-01 1.124645e+00 1.725420e+00 5.891749e+00 3.776460e+00 3.208209e+00 2.143334e+00 2.904904e+00 2.196109e+00 1.416639e-01 2.244147e-02 2.613245e-01 1.821166e-01 1.116942e-01 2.005864e-01 3.026281e-01 9.809842e-01 3.881447e-01 1.894238e-01 2.981037e-01 4.518434e-01 8.466685e-01 1.184439e-01
<GCONST> 8.710477e+01
<MIXTURE> 8 3.157200e-02
<MEAN> 39
 -2.019758e+00 4.375567e+00 4.807971e+00 5.222676e+00 1.661960e+00 8.367530e+00 2.425250e+00 6.387024e+00 7.941078e+00 1.176985e+00 -1.634522e+00 1.470888e-01 -1.180075e+01 -8.182166e-01 -3.282218e-02 -8.518634e-02 -2.394627e-01 8.298050e-01 1.330760e+00 1.845433e+00 4.197898e-01 1.784222e-01 5.713531e-01 -1.065852e+00 -4.201610e-01 -7.911425e-02 1.263351e-01 5.720465e-02 -1.921117e-01 -1.001657e-01 4.407979e-01 -2.531238e-01 3.782842e-02 -6.539106e-01 -5.784941e-01 2.935701e-01 2.376493e-01 5.344316e-02 9.755863e-02
<VARIANCE> 39
 1.264227e+01 1.691920e+01 6.284287e+00 1.492764e+01 2.408549e+01 3.347403e+01 2.777887e+01 1.194702e+01 1.654122e+01 1.820542e+01 2.600029e+01 1.388018e+01 1.510032e+01 3.163720e-01 1.078460e+00 3.983543e-01 1.152873e+00 2.872916e+00 3.052629e+00 1.027001e+00 3.203061e+00 2.965074e+00 3.423638e+00 1.587409e+00 1.190896e+00 6.294342e-01 6.522695e-02 1.287498e-01 3.354118e-02 4.500524e-02 2.098909e-01 6.558568e-01 1.473571e-01 3.361813e-01 3.598381e-01 3.774217e-01 4.086302e-01 1.625377e-01 8.916691e-02
<GCONST> 8.900285e+01
<MIXTURE> 9 7.120787e-02
<MEAN> 39
 1.398355e+00 5.517189e+00 5.185602e+00 5.560211e+00 1.009975e+00 2.194334e+00 -4.859352e+00 -3.870109e+00 2.257080e+00 -8.980415e-01 4.369332e-01 -9.660698e-01 -8.941379e+00 -1.147681e+00 1.019232e+00 6.598004e-01 1.105938e-01 7.732875e-01 1.403921e+00 1.047288e+00 1.412881e+00 2.374295e+00 1.339162e+00 7.894426e-01 9.513119e-01 -1.927630e+00 -1.894169e-01 -7.597802e-01 -5.716583e-01 -1.900219e-01 -2.343258e-02 -1.261380e-02 6.688736e-01 6.184278e-01 -2.238714e-01 3.421027e-02 1.386276e-01 3.855321e-01 6.314246e-01
<VARIANCE> 39
 6.511839e+00 3.513937e+00 9.384158e+00 1.129816e+01 2.106729e+01 1.471131e+01 2.162478e+01 2.048736e+01 3.349266e+01 3.271972e+01 3.573151e+01 2.463106e+01 5.235230e+00 2.986346e-01 1.569534e+00 1.716836e+00 1.705146e+00 2.402951e+00 2.971899e+00 3.095137e+00 4.054432e+00 3.495464e+00 2.614224e+00 4.868733e+00 2.111246e+00 1.239813e+00 9.099250e-02 8.322126e-02 1.453666e-01 2.366688e-01 4.782433e-01 3.755365e-01 3.119607e-01 3.881269e-01 6.027648e-01 5.965161e-01 7.380757e-01 2.934311e-01 6.516709e-02
<GCONST> 9.894073e+01
<MIXTURE> 10 6.836492e-02
<MEAN> 39
 3.653548e+00 -8.771876e-01 5.388467e-01 5.511751e+00 2.211376e+00 9.783000e-01 3.345326e-02 -3.254966e+00 -4.577583e+00 -5.061210e+00 -1.887366e+00 -1.294386e-01 -3.530235e+00 1.988690e-01 1.976025e+00 1.797257e+00 8.358387e-01 3.221175e-01 7.730392e-01 -1.129055e+00 -3.863268e-01 1.600367e+00 -1.861399e-01 -5.222784e-02 2.291763e-01 -2.920729e+00 -5.429238e-01 -6.429957e-02 -5.541665e-02 -2.401496e-01 -1.251134e-02 7.766385e-02 5.299329e-02 4.485681e-01 3.719709e-01 7.072960e-01 4.185948e-01 1.106319e-01 2.520827e-01
<VARIANCE> 39
 3.622380e+00 9.203642e+00 1.205614e+01 1.042681e+01 1.385137e+01 1.941819e+01 1.629238e+01 2.571492e+01 5.403431e+01 1.663469e+01 1.297633e+01 2.038249e+01 1.267805e+01 9.882366e-01 1.715955e+00 8.017743e-01 1.456100e+00 2.143103e+00 1.591666e+00 1.537640e+00 4.664607e+00 4.389813e+00 2.487096e+00 1.992318e+00 1.967146e+00 8.300224e-01 7.718189e-02 2.193144e-01 1.608196e-01 1.991277e-01 3.038189e-01 3.790658e-01 3.054759e-01 5.765818e-01 9.947853e-01 4.113284e-01 1.954543e-01 3.282347e-01 1.295799e-01
<GCONST> 9.691777e+01
<MIXTURE> 11 6.461020e-02
<MEAN> 39
 2.630083e+00 2.555875e+00 2.069630e+00 5.417939e+00 2.689896e+00 -3.064022e+00 -9.723449e-01 -1.123652e+00 7.426862e-01 -3.146720e+00 4.836868e+00 4.422911e+00 -8.542621e+00 -4.132695e-01 1.255724e+00 7.870405e-01 3.007747e-01 2.637675e-01 9.118475e-01 -5.068499e-03 1.090467e+00 2.105668e+00 2.215962e-01 1.355216e-01 5.168307e-01 -1.690292e+00 -2.802498e-01 -3.760791e-01 -1.634450e-01 -3.100164e-01 1.836055e-01 4.343119e-01 3.385877e-01 8.128627e-02 3.131165e-02 4.148518e-01 -5.045338e-01 -4.127716e-01 5.302370e-01
<VARIANCE> 39
 5.393539e+00 5.533286e+00 4.801569e+00 1.652441e+01 8.836294e+00 2.069720e+01 2.260192e+01 1.734423e+01 2.307676e+01 1.143057e+01 1.353354e+01 1.088456e+01 6.855871e+00 7.833605e-01 1.169433e+00 1.012189e+00 9.888811e-01 1.396995e+00 2.128964e+00 3.283398e+00 3.522772e+00 2.086254e+00 3.252228e+00 2.262730e+00 1.737571e+00 1.048908e+00 5.222819e-02 9.821673e-02 9.311485e-02 3.940075e-01 2.117334e-01 4.887533e-01 4.141266e-01 3.390630e-01 2.772143e-01 2.103639e-01 2.449002e-01 2.443895e-01 7.610746e-02
<GCONST> 8.885988e+01
<MIXTURE> 12 1.087267e-01
<MEAN> 39
 -3.677314e-01 3.270826e+00 2.881635e+00 4.970369e+00 3.570299e+00 4.598602e+00 1.016574e+00 1.912352e+00 5.077404e+00 4.140412e+00 5.230160e+00 5.019458e+00 -1.149717e+01 -5.055790e-01 4.034416e-01 1.138770e-01 -4.818772e-01 2.876774e-01 6.152140e-01 7.023816e-01 1.627467e+00 1.843626e+00 1.323707e+00 2.313073e-01 6.207671e-01 -9.053107e-01 1.542673e-01 -1.154242e-01 8.445848e-03 -3.580932e-02 -1.492756e-01 -3.216982e-01 -2.924945e-01 -3.568137e-01 -5.362819e-01 -6.206214e-01 -3.985865e-01 -3.004904e-01 4.681381e-01
<VARIANCE> 39
 4.796756e+00 5.599954e+00 8.490053e+00 1.395888e+01 1.188681e+01 1.402971e+01 2.028925e+01 2.131169e+01 2.448798e+01 2.324382e+01 1.719902e+01 1.680692e+01 3.963972e+00 3.510396e-01 4.659869e-01 6.009662e-01 1.144657e+00 1.401975e+00 9.906234e-01 2.099699e+00 2.633528e+00 1.752255e+00 2.770696e+00 2.262774e+00 2.284738e+00 3.108394e-01 7.405905e-02 1.624287e-01 1.505467e-01 1.816985e-01 2.364139e-01 2.061900e-01 4.120264e-01 4.262279e-01 4.191743e-01 4.333884e-01 3.886639e-01 4.093789e-01 8.985458e-02
<GCONST> 8.749217e+01
<MIXTURE> 13 5.328070e-02
<MEAN> 39
 -1.685134e-01 6.961696e+00 4.098222e+00 5.715945e+00 7.092628e+00 1.096436e+00 2.489503e+00 6.532411e-02 4.619976e+00 -1.557436e+00 -2.831691e+00 1.345792e-01 -1.087111e+01 -4.372494e-01 5.597534e-01 -2.457690e-01 -5.374395e-01 2.516941e-01 6.140976e-01 1.030471e+00 1.346729e+00 1.363460e+00 4.499357e-01 1.625308e-03 -2.058483e-01 -5.306118e-01 4.401142e-02 -2.092453e-01 -1.452526e-01 -1.280861e-01 -2.457137e-01 -1.992954e-01 -3.337387e-02 1.884016e-01 -4.292748e-03 1.945901e-01 3.788301e-01 1.906727e-01 2.034357e-01
<VARIANCE> 39
 5.412097e+00 4.541669e+00 5.403378e+00 1.259273e+01 1.413727e+01 2.014246e+01 1.947811e+01 1.796537e+01 1.890104e+01 1.904440e+01 1.675899e+01 1.474931e+01 5.012105e+00 1.771081e-01 5.237581e-01 5.966648e-01 8.476769e-01 1.710676e+00 7.481995e-01 1.287696e+00 1.253034e+00 1.015832e+00 1.803726e+00 1.998790e+00 2.054507e+00 1.349382e-01 5.573418e-02 6.060243e-02 1.034823e-01 1.496239e-01 1.841779e-01 4.239399e-01 2.151386e-01 2.307721e-01 3.001625e-01 2.259573e-01 3.155169e-01 2.425058e-01 2.686622e-02
<GCONST> 7.700830e+01
<MIXTURE> 14 5.682884e-03
<MEAN> 39
 -9.863023e-01 -4.329329e+00 -4.598753e+00 3.673599e+00 1.356304e+01 6.947783e+00 9.140291e+00 6.685128e+00 -7.848621e+00 -5.555376e+00 1.101405e+01 7.037488e+00 -5.363551e+00 7.888069e-01 1.948018e+00 1.028821e+00 8.293314e-01 -6.694024e-01 1.119865e+00 -6.213197e-01 -2.480622e-02 -2.294989e-01 1.494006e+00 -1.683668e+00 1.953256e+00 -2.463120e+00 3.541391e-02 3.111545e-01 3.285943e-01 -1.239663e-01 -4.987813e-01 -4.993415e-01 -6.791661e-01 -5.033380e-01 9.573842e-01 2.111970e-01 -3.602941e-01 -3.747208e-01 1.444030e-01
<VARIANCE> 39
 4.226093e+00 9.221373e+00 6.840163e+00 1.011356e+01 1.984706e+01 9.023893e+00 4.952392e-01 4.422386e+01 1.105661e+01 9.805282e+00 2.873815e+01 2.947056e+01 1.508059e+01 7.329502e-02 2.489583e+00 3.231773e-01 3.383614e-01 7.035424e-01 5.461390e-01 9.077322e-01 6.363761e-01 2.493680e+00 1.735576e+00 1.572817e+00 3.564579e+00 4.950406e+00 3.811764e-02 3.661501e-01 1.459985e-01 1.281009e-01 3.072385e-01 1.313328e-01 1.876939e-02 1.151787e+00 4.573264e-01 4.293514e-01 3.876459e-01 1.298978e+00 4.013830e-01
<GCONST> 8.283900e+01
<MIXTURE> 15 7.158006e-02
<MEAN> 39
 1.848019e+00 -3.943929e+00 -2.900020e+00 3.651371e+00 3.314656e+00 -2.048389e+00 4.867527e-01 -1.067238e+00 -5.515139e+00 2.862428e+00 2.374217e+00 2.198674e+00 -3.304563e-01 -6.814287e-02 1.486973e+00 1.170917e+00 1.281520e+00 7.505602e-01 -7.801172e-01 4.209414e-01 -5.097646e-01 1.427958e+00 -6.601795e-01 -2.130584e-02 6.549423e-01 -1.986022e+00 -1.667569e-01 2.498601e-01 2.079879e-01 -1.915906e-02 -9.438038e-02 2.309074e-01 -6.917760e-02 2.970815e-01 1.788762e-01 -4.515803e-01 -9.532434e-02 -1.458708e-01 -1.059896e-02
<VARIANCE> 39
 2.908929e+00 4.753815e+00 6.479717e+00 2.685808e+01 6.516891e+00 7.588192e+00 3.190646e+01 1.352984e+01 1.300835e+01 7.403452e+00 1.223121e+01 1.273038e+01 7.180956e+00 3.440619e-01 1.118494e+00 1.012879e+00 1.859908e+00 1.091718e+00 2.034271e+00 2.468518e+00 1.207959e+00 2.353070e+00 1.725400e+00 1.133999e+00 9.004084e-01 6.479018e-01 6.457838e-02 1.069996e-01 1.051082e-01 3.584708e-01 1.467141e-01 1.936891e-01 5.324767e-01 2.020402e-01 4.027175e-01 1.645675e-01 3.491587e-01 1.725757e-01 4.895945e-02
<GCONST> 8.099203e+01
<MIXTURE> 16 5.683713e-03
<MEAN> 39
 1.988091e+00 -1.259287e+00 -5.154779e-01 5.440583e+00 4.013402e+00 -7.162317e-02 8.485991e+00 -3.961590e+00 -9.898407e+00 -2.554825e+00 8.940550e+00 5.262664e+00 -7.969831e+00 -3.517707e-01 1.838604e+00 9.057384e-01 1.770266e+00 1.974963e-01 1.086625e+00 1.895305e-01 1.178548e+00 3.792982e+00 2.118786e+00 1.181846e-01 9.368903e-01 -3.217333e+00 -1.718686e-01 -2.638987e-01 7.831410e-02 -5.620309e-01 -3.125472e-01 2.116935e-01 -5.343100e-01 5.260444e-01 6.999063e-01 5.956622e-02 -5.431702e-01 -4.652532e-01 6.453904e-01
<VARIANCE> 39
 9.439839e-01 1.093719e+00 5.402323e+00 2.657975e+01 2.088786e+00 4.132953e+00 3.262009e+00 2.504421e+00 6.485070e+00 8.265255e+00 3.046801e+01 1.104257e+00 8.157731e+00 1.141827e+00 8.545364e-01 1.334582e-01 5.167476e+00 1.522516e+00 2.265078e+00 4.298533e-01 3.321811e-01 6.752467e-01 4.294774e+00 4.177806e-01 1.344320e-01 1.182683e+00 4.515359e-02 1.535475e-01 5.807441e-02 4.142001e-01 1.030212e-01 5.758666e-02 2.155636e-01 7.457262e-02 1.674030e-01 1.163204e-01 1.011078e-01 4.781941e-02 1.278113e-02
<GCONST> 5.618985e+01
<TRANSP> 7
 0.000000e+00 1.000000e+00 0.000000e+00 0.000000e+00 0.000000e+00 0.000000e+00 0.000000e+00
 0.000000e+00 9.266075e-01 7.339250e-02 0.000000e+00 0.000000e+00 0.000000e+00 0.000000e+00
 0.000000e+00 0.000000e+00 9.285229e-01 7.147710e-02 0.000000e+00 0.000000e+00 0.000000e+00
 0.000000e+00 0.000000e+00 0.000000e+00 9.069989e-01 9.300105e-02 0.000000e+00 0.000000e+00
 0.000000e+00 0.000000e+00 0.000000e+00 0.000000e+00 9.106746e-01 8.932545e-02 0.000000e+00
 0.000000e+00 0.000000e+00 0.000000e+00 0.000000e+00 0.000000e+00 9.289591e-01 7.104088e-02
 0.000000e+00 0.000000e+00 0.000000e+00 0.000000e+00 0.000000e+00 0.000000e+00 0.000000e+00
<ENDHMM>
~o
<STREAMINFO> 1 39
<VECSIZE> 39<NULLD><MFCC_D_A_Z_0><DIAGC>
~h "Aurangabad"
<BEGINHMM>
<NUMSTATES> 7
<STATE> 2
<NUMMIXES> 16
<MIXTURE> 1 1.843114e-01
<MEAN> 39
 -4.106382e+00 6.119576e+00 8.394225e+00 8.403452e+00 5.146756e+00 4.896685e+00 -6.889212e-01 1.365687e+00 1.182081e+01 4.476298e+00 5.686545e+00 3.488794e+00 -1.430440e+01 8.610196e-02 8.246209e-02 1.469295e-04 -2.198438e-01 -1.694667e-01 -9.392493e-02 3.682573e-02 -3.538140e-02 8.767778e-03 7.511911e-02 -3.560713e-01 2.047265e-02 5.529279e-02 -1.978503e-02 -6.877810e-02 -6.430907e-02 2.217834e-02 -3.868751e-03 2.453124e-02 1.537961e-01 8.142403e-02 -9.003168e-02 2.098197e-02 4.602165e-02 -4.350490e-03 3.503889e-02
<VARIANCE> 39
 1.240732e+01 6.156024e+00 7.683774e+00 1.181856e+01 1.716164e+01 1.651126e+01 1.940686e+01 1.779322e+01 2.599092e+01 2.714210e+01 2.475774e+01 1.617750e+01 8.601365e+00 1.680430e-01 3.354295e-01 3.767691e-01 1.093463e+00 1.475854e+00 1.343605e+00 1.244691e+00 1.882049e+00 2.686558e+00 2.364077e+00 2.261557e+00 1.478053e+00 6.102173e-02 2.567894e-02 4.595922e-02 7.100837e-02 2.047411e-01 2.448128e-01 1.793351e-01 1.607430e-01 2.882749e-01 3.425134e-01 3.408425e-01 3.509819e-01 2.264174e-01 1.211831e-02
<GCONST> 7.848466e+01
<MIXTURE> 2 5.820756e-02
<MEAN> 39
 -1.257680e+00 1.118786e-01 3.535137e+00 8.402848e+00 4.106148e+00 4.226742e+00 4.936153e-01 -2.133596e+00 5.996807e+00 5.281490e+00 1.047718e+01 1.040946e+01 -1.132070e+01 5.272112e-02 -6.560223e-01 -8.596656e-01 7.900097e-01 7.960525e-01 -7.996041e-02 5.297773e-02 -5.321571e-01 -1.183503e+00 -4.905873e-01 1.017377e-01 2.696535e-01 5.067006e-01 -1.766568e-01 8.397078e-02 1.327384e-01 1.604919e-03 4.740024e-02 1.050874e-01 -1.513211e-01 1.346957e-01 2.731704e-01 -4.756120e-02 -3.544025e-01 -3.330655e-01 9.585124e-02
<VARIANCE> 39
 5.070264e+00 9.257038e+00 9.238819e+00 1.368041e+01 1.552862e+01 1.373040e+01 1.789204e+01 2.059518e+01 2.393811e+01 1.935862e+01 1.294170e+01 1.327198e+01 6.838236e+00 4.068485e-01 1.320558e+00 1.150872e+00 1.140944e+00 1.006288e+00 1.334929e+00 2.146528e+00 1.481458e+00 3.758338e+00 2.445197e+00 2.350244e+00 1.269317e+00 5.995679e-01 5.553728e-02 1.080605e-01 2.619629e-01 1.385083e-01 1.566302e-01 1.350121e-01 2.435906e-01 2.508653e-01 5.654426e-01 5.686207e-01 4.171182e-01 2.258050e-01 1.103852e-01
<GCONST> 8.796259e+01
<MIXTURE> 3 6.786287e-02
<MEAN> 39
 4.015554e+00 8.645191e-01 -1.114303e+01 -2.547471e+00 2.619213e+00 -2.209910e+00 -6.346137e+00 2.921696e+00 8.709631e+00 6.986801e-01 -1.078655e+01 -3.661458e+00 2.438619e+00 1.458017e-01 3.584090e-01 6.435850e-01 -4.271889e-01 -1.510954e+00 -1.524066e+00 2.564014e-01 1.263425e+00 5.965743e-01 1.606888e-01 -2.849803e-01 -4.249899e-01 1.206313e-01 -2.731401e-01 -2.503000e-01 3.622497e-01 4.426634e-01 -9.672132e-02 -2.327457e-01 4.344063e-01 2.639467e-01 -5.786019e-01 -6.083807e-01 6.647894e-01 5.854381e-01 5.437552e-02
<VARIANCE> 39
 3.600901e+00 4.917987e+00 1.359483e+01 6.769985e+00 1.333921e+01 1.976052e+01 1.446847e+01 2.198984e+01 2.229303e+01 1.603552e+01 1.744477e+01 1.018883e+01 4.488810e+00 4.239121e-01 4.899257e-01 7.737671e-01 1.223633e+00 9.790740e-01 2.069095e+00 1.781265e+00 2.727136e+00 2.622041e+00 1.787534e+00 1.219117e+00 1.879782e+00 5.254976e-01 6.741818e-02 6.169841e-02 1.730242e-01 2.126044e-01 1.321336e-01 3.314485e-01 1.583291e-01 2.551476e-01 5.283288e-01 2.297513e-01 2.497623e-01 2.506045e-01 6.840692e-02
<GCONST> 8.267781e+01
<MIXTURE> 4 3.306556e-02
<MEAN> 39
 -5.924953e+00 -4.377270e+00 -4.277706e-01 1.316069e+01 8.629932e+00 2.972512e+00 1.338775e+00 -2.555913e+00 3.340399e+00 1.874599e+00 8.412962e+00 8.032528e+00 -4.836714e+00 4.746699e-01 -5.311458e-01 -1.641940e+00 -2.991394e-01 7.800666e-02 -3.989806e-01 -3.621933e-01 1.195941e-01 -1.506253e+00 -1.559266e+00 -1.405638e+00 -1.103904e+00 1.912885e+00 6.371501e-01 3.154652e-01 -3.304045e-01 -8.446651e-01 -4.660217e-01 -1.982967e-01 -2.276781e-01 8.795127e-02 1.933282e-01 -1.501306e-01 -5.938959e-01 -3.420793e-01 2.389204e-01
<VARIANCE> 39
 2.847291e+00 2.879618e+00 7.813930e+00 7.907550e+00 1.326127e+01 1.409623e+01 2.076662e+01 2.256588e+01 1.931081e+01 2.901175e+01 1.783133e+01 1.727555e+01 3.964768e+00 1.526593e+00 1.317279e+00 1.581156e+00 2.414037e+00 1.958730e+00 1.362375e+00 3.277963e+00 1.235371e+00 3.305393e+00 2.653569e+00 2.319472e+00 1.912112e+00 1.029156e+00 1.662620e-01 1.186846e-01 2.030900e-01 3.403074e-01 2.919993e-01 2.418085e-01 5.387414e-01 4.741568e-01 4.775138e-01 4.571938e-01 2.395973e-01 3.410558e-01 1.273773e-01
<GCONST> 9.412974e+01
<MIXTURE> 5 7.115463e-02
<MEAN> 39
 -3.931996e+00 6.379771e+00 8.216063e+00 6.640337e+00 4.272195e+00 4.597065e+00 1.797833e+00 1.898853e+00 1.274851e+01 7.086583e+00 4.599319e+00 4.040246e+00 -1.466165e+01 1.335846e-01 -5.074317e-01 -4.020699e-01 3.931856e-01 -3.231786e-01 -2.772614e-01 -2.653348e-02 2.856686e-01 -5.123101e-01 -2.815449e-01 -2.761878e-02 -2.453233e-01 4.161097e-01 3.655711e-01 -6.318552e-01 -7.749608e-01 2.752980e-01 3.605999e-01 -2.552595e-01 -3.593419e-01 -2.420709e-01 -8.172145e-01 -6.714607e-01 1.136494e-01 -8.738991e-03 6.258605e-01
<VARIANCE> 39
 9.884632e+00 7.559981e+00 4.322573e+00 1.097489e+01 1.747272e+01 1.948843e+01 2.247602e+01 2.078421e+01 1.788022e+01 1.358257e+01 2.042435e+01 1.454338e+01 8.184168e+00 2.174343e-01 5.788299e-01 5.547729e-01 1.169705e+00 1.144919e+00 1.352829e+00 1.348375e+00 1.466262e+00 2.375883e+00 1.710949e+00 2.135866e+00 1.962463e+00 1.588115e-01 8.258329e-02 1.022121e-01 1.337831e-01 2.605787e-01 3.214101e-01 2.252688e-01 3.078413e-01 4.123030e-01 4.478486e-01 2.818121e-01 5.472567e-01 3.169651e-01 8.705888e-02
<GCONST> 8.564224e+01
<MIXTURE> 6 2.624248e-02
<MEAN> 39
 -5.904283e+00 6.606078e+00 4.692663e+00 4.608416e+00 8.045373e+00 1.326974e+00 9.521672e-01 -2.895626e+00 6.476249e+00 3.194560e+00 3.129375e+00 1.308120e+00 -7.347707e+00 -1.130177e-01 1.376452e-01 -9.787861e-02 -9.154339e-02 -7.292861e-02 -1.030975e-01 3.910342e-01 5.388337e-01 7.189020e-01 -1.913330e-01 2.361732e-01 3.758874e-01 -1.493976e-01 1.851737e-02 -1.258241e-01 1.892636e-02 6.009114e-02 -1.005682e-01 7.182882e-02 8.581504e-02 -5.197757e-02 2.560628e-02 1.171922e-01 -4.954652e-02 1.511564e-01 -1.060505e-02
<VARIANCE> 39
 4.014751e+01 1.866102e+01 6.604391e+00 7.249992e+00 1.023342e+01 9.787251e+00 1.306295e+01 1.769711e+01 2.633722e+01 1.916593e+01 3.217245e+01 1.865883e+01 8.062078e+00 5.883610e+00 3.041480e+00 7.916146e-01 1.474867e+00 1.363515e+00 8.189136e-01 2.072232e+00 2.625817e+00 3.590585e+00 1.799425e+00 3.197770e+00 2.375681e+00 1.237996e+00 1.257243e+00 6.045093e-01 1.259586e-01 1.966865e-01 4.255829e-01 1.627356e-01 3.634749e-01 4.433773e-01 5.270776e-01 4.808518e-01 6.728478e-01 4.534610e-01 2.524268e-01
<GCONST> 1.034703e+02
<MIXTURE> 7 3.974400e-02
<MEAN> 39
 2.737936e+00 -5.466162e+00 -9.015945e+00 1.265283e+00 3.192039e+00 -2.837964e+00 -1.044260e+00 5.953521e+00 -4.200907e+00 -4.338758e+00 -1.828285e-01 4.749812e+00 3.914930e+00 1.720338e-01 6.983914e-01 -8.404946e-02 -1.513419e+00 -1.666999e+00 -9.764963e-02 6.130731e-01 2.232276e+00 -3.148030e-01 -1.312699e+00 -1.477343e+00 2.634521e-01 7.039871e-01 -2.143100e-01 6.956657e-01 9.619646e-01 1.471113e-02 -3.022608e-01 2.953793e-01 6.078194e-02 -3.091849e-02 7.677552e-01 3.863209e-01 -1.586842e-01 -5.916304e-01 -7.505739e-01
<VARIANCE> 39
 5.105904e+00 6.620604e+00 2.954669e+00 1.031625e+01 1.184745e+01 1.405279e+01 1.314410e+01 1.836820e+01 1.398719e+01 8.828719e+00 1.397468e+01 8.314641e+00 1.929761e+00 1.589135e-01 7.114944e-01 1.090099e+00 9.296542e-01 8.681459e-01 9.691746e-01 1.427453e+00 9.453709e-01 9.343231e-01 8.629521e-01 1.031259e+00 1.506125e+00 4.790697e-01 1.526248e-01 2.811567e-01 1.846726e-01 1.544500e-01 2.375398e-01 3.950581e-01 2.208869e-01 5.647417e-01 3.602554e-01 1.869105e-01 2.271402e-01 2.641803e-01 1.358450e-01
<GCONST> 7.823394e+01
<MIXTURE> 8 6.508514e-02
<MEAN> 39
 3.464737e-01 -5.653252e+00 -8.355594e+00 4.684492e+00 7.717710e+00 1.852984e+00 -6.971297e+00 2.300853e+00 -1.650264e+00 -3.963483e+00 2.896618e-01 1.289863e+00 3.421910e+00 3.561975e-01 4.230654e-01 -1.748762e+00 -1.766384e+00 -4.214205e-01 4.917600e-02 -3.782701e-01 7.494492e-01 1.727436e-01 -8.800330e-01 -2.111714e+00 -6.443526e-01 1.476084e+00 3.664927e-02 5.616340e-01 3.155444e-01 1.148229e-01 -3.331192e-01 -1.155856e-01 4.217360e-01 4.069807e-02 4.553143e-01 2.957173e-01 -1.763773e-01 6.108655e-02 -6.024906e-01
<VARIANCE> 39
 5.062485e+00 1.170243e+01 7.345769e+00 1.564980e+01 1.188000e+01 1.652796e+01 3.300889e+01 3.296164e+01 2.564512e+01 2.200419e+01 2.583014e+01 1.339083e+01 1.044376e+01 6.634233e-01 7.943171e-01 9.772624e-01 1.310018e+00 1.009453e+00 1.028624e+00 1.596022e+00 1.948936e+00 1.757624e+00 1.646108e+00 1.499958e+00 2.890126e+00 8.112205e-01 1.111744e-01 1.899937e-01 2.345614e-01 2.968850e-01 1.689282e-01 2.399147e-01 3.678309e-01 3.980433e-01 5.539384e-01 3.163809e-01 4.244042e-01 2.708430e-01 2.003158e-01
<GCONST> 9.324033e+01
<MIXTURE> 9 1.152591e-01
<MEAN> 39
 1.806856e+00 -2.954071e+00 -1.149172e+01 9.858674e-01 5.323822e+00 -2.404697e+00 -3.117047e+00 2.425813e+00 3.137120e+00 -6.619112e+00 -6.403757e+00 3.191496e+00 5.117685e+00 3.505574e-01 6.486695e-01 -4.124093e-01 -1.119856e+00 -1.251582e+00 -3.051618e-01 -1.714813e-01 9.261786e-01 6.704630e-01 3.042603e-01 -1.585192e+00 -8.521498e-01 3.889856e-01 -5.122951e-02 1.153831e-02 7.350329e-01 1.967097e-01 -2.070296e-01 7.891750e-02 3.996719e-02 3.135639e-02 -1.403321e-01 4.228134e-01 6.505935e-01 -2.357856e-01 -4.251561e-01
<VARIANCE> 39
 3.310834e+00 7.175241e+00 7.898908e+00 8.610091e+00 1.517583e+01 1.604580e+01 2.123017e+01 2.512029e+01 2.543202e+01 1.749114e+01 1.602971e+01 1.870860e+01 5.534151e+00 3.533034e-01 4.709674e-01 1.015625e+00 9.804149e-01 1.177582e+00 1.100885e+00 1.112151e+00 1.652887e+00 2.467846e+00 1.460779e+00 1.729897e+00 1.738776e+00 3.837123e-01 9.098226e-02 8.920706e-02 9.265503e-02 1.436295e-01 1.832947e-01 2.269942e-01 2.277972e-01 3.476388e-01 3.284672e-01 3.525467e-01 2.087460e-01 3.338156e-01 8.931212e-02
<GCONST> 8.276344e+01
<MIXTURE> 10 2.734526e-02
<MEAN> 39
